const PARAM_TYPE C1_biases[6] = {-0.035360765, 0.0012795696, 0.026626503, 0.07220019, -0.011459631, 7.414019e-08};
const PARAM_TYPE C2_biases[16] = {-0.020147916, 0.04321833, -0.003725339, -0.039733544, 0.008584409, -0.01947613, 0.030353256, 0.029403357, 0.04056825, 0.007496909, 0.05034246, 0.015458399, -0.02016616, -0.086286016, -0.02940039, -0.011289195};

const PARAM_TYPE FC1_bias[120] = {0.009171085, -0.010194153, -0.005007535, -0.0036003955, 0.003930017, 0.011647163, 4.1030806e-05, 0.01236798, 4.7262343e-05, 0.0007359091, 0.003967165, 0.0010542813, 0.0050442517, -0.002788293, -0.0036664829, 0.0010284246, 0.020850956, -0.0067317453, -0.0011070977, 0.035283104, -0.0070696683, -0.008045287, 0.016018266, 0.017220138, 0.01004444, 0.0013632426, 0.0016863865, -0.006854919, -0.013527457, -0.00017349265, 0.015016372, 0.00057888, -0.0018074823, -0.0077791642, 0.008301254, 0.0037915132, -0.0061782096, 0.0036282884, 0.009357458, -0.0010046304, -0.0059209084, 0.012289623, 0.0010321689, 0.013377799, 0.0020421012, -0.012430049, -0.009530834, -0.0013580605, -0.005798124, 0.00018091922, -0.010910607, -0.0020853574, -0.0060018036, -0.0020731015, 0.0138158435, -0.005223667, -0.0023407212, 0.031443592, -0.02621385, 0.032535788, 0.009874456, 0.0092602875, 3.4153887e-05, -0.005392614, 0.001860743, -0.005685381, 0.015871055, 6.292251e-05, -0.00016809095, -0.00026827818, 0.00093478, 0.0036259848, 0.01606613, -5.6685683e-05, 0.020296382, -0.0035349063, 0.007105108, 0.0025238956, -0.02154096, 0.022019668, -0.009067524, -5.2579562e-05, -0.017957, -0.00044610703, 0.0051291413, -0.0015533968, 0.019867929, 0.0009963544, -0.0055826153, 0.0028305908, 0.0025264383, -0.015829409, -7.563106e-05, -0.006910335, 0.00044541954, 0.00994394, 0.010892489, -0.003224977, -0.008760875, 0.007134683, 0.013950372, 0.00846362, 0.012757293, -0.00028081585, 0.004525259, -0.0015772214, -0.007359414, -0.0063696224, 0.0071137445, 0.00034383178, 0.008988597, 0.006614185, 0.00763062, -0.0014752608, 0.019567316, 0.022503253, 0.01574483, 0.017298805, 0.0013177549, 0.0072259484};
const PARAM_TYPE FC2_bias[84] =	{0.024638308, 0.007626986, 0.027276851, 0.01708619, 0.00045524247, 0.015108047, 0.011681722, -0.0007094799, -0.02194353, -0.002686275, -0.018829236, 0.00067281164, 0.022809284, -8.892336e-06, -0.0014320209, -0.0057190093, -0.005152015, -0.005322881, -0.012297152, -0.0008504854, -0.005082605, 0.007924511, 0.023245074, -0.0064395177, -0.00082540617, -0.0117374845, -0.0031261018, 0.017880715, 0.0047518634, -0.010058387, 0.032458544, 0.00906035, -0.0020049184, 0.010724355, 0.0011367806, -0.003901661, 0.0057760244, 0.006856591, 0.013588258, 0.0073170834, 0.019641466, 0.004035067, 0.013185622, -0.0030180179, 0.027164042, 0.017546386, 0.01725401, -0.00012413031, -0.0037556612, 0.0033933315, 0.006961043, 0.0034926082, 0.008841626, 0.0035244469, -0.00639055, 0.00047697392, 0.012903021, 0.00036602086, 0.024509214, -0.010499967, -0.0034682201, -0.011309345, -0.0029357325, -0.0017170896, 0.0053785522, 0.01918165, 0.013287509, 0.022480039, -0.018929414, -0.0025220385, -0.011376514, 0.00018011605, -0.0015749182, 0.0041398844, 0.012314807, 0.0072305086, 0.014561267, -0.021749513, -0.0040423092, 0.00037351443, -0.03816326, 0.012006236, -0.0019350357, 0.023375092};

const PARAM_TYPE FC3_bias[10] = {-0.03223613, 0.04692557, -0.028155109, -0.035799015, -0.0159921, 0.024680074, 0.025651822, 0.008295782, 0.0324721, -0.025846131};
