const float kernel[120][400] =	{
		{0.07533294,-0.07131707,-0.05545796,0.011782522,-0.024375806,0.035794605,-0.0013071629,0.14844859,0.070145,0.05693674,0.10305013,0.029591503,0.092531085,-0.020489322,-0.049679045,-0.035173923,0.002726711,0.023966432,0.06460082,-0.08688321,0.06996804,-0.007332735,0.07717835,0.12343579,-0.07857028,0.02563164,-0.1189351,-0.04122846,0.063704245,0.0406988,0.10515208,0.00084607856,0.130925,0.11565616,-0.07275573,0.03453581,0.010806899,-0.054178864,0.0474609,0.051469285,-0.010139586,-0.0645164,-0.005980396,-0.082727276,-0.0070971153,0.022814298,-0.030407924,0.07782857,0.0938373,-0.001377618,-0.06822068,0.018696347,0.05776777,-0.11947497,-0.06615473,0.0070372596,-0.027014298,-0.12470281,-0.09701097,0.081253275,0.07990244,-0.06619671,0.007395178,-0.033011563,0.08318362,0.096291766,-0.0226711,0.060823876,-0.1238399,0.07267222,0.04796104,-0.07851243,-0.003187292,-0.08775935,-0.08270553,0.00931527,-0.028650869,-0.083544195,-0.09760743,0.08089647,0.06822313,-0.14531225,-0.084809296,-0.07424834,0.08903178,-0.018807093,-0.10027996,0.018380277,0.098783605,0.011650723,-0.022564985,0.01613659,-0.06233118,-0.042092163,-0.037458017,-0.06966933,0.107755214,0.055637926,-0.076719396,-0.0024271365,-0.060256347,0.006974916,-0.108576946,-0.0017085656,-0.04029502,-0.007866247,0.044910748,-0.044553168,-0.064092785,-0.08704455,0.064671114,-0.10608109,-0.07567784,-0.057437778,-0.019381605,-0.04687393,0.09910216,0.1042797,0.0037623036,0.083555974,-0.08065278,-0.04229599,-0.0015574878,-0.01149277,-0.084579654,0.00038282608,0.040161747,-0.008548061,0.071688585,0.018902065,0.050917376,0.074286126,0.0005958475,-0.093424365,-0.052467167,0.067103446,-0.001450866,-0.09055632,-0.07496807,0.08719492,-0.07212305,0.062120672,-0.12718588,0.05203951,0.052911088,-0.10642781,0.08735504,0.012762905,-0.012210487,-0.037738774,-0.01508618,-0.074203655,-0.05842069,-0.016757175,-0.076126955,0.12600176,-0.02557069,0.17720331,0.09209365,0.02094583,-0.054571483,-0.01708426,0.09158064,0.07259208,-0.10559155,0.12834065,0.12587139,-0.07352304,0.036405314,-0.049199637,-0.061388146,0.06814232,-0.0019290756,0.0791587,0.13050543,0.056723688,-0.033993423,0.0921729,-0.0879136,-0.06079196,0.108054966,0.09448978,0.022496259,0.09727866,0.032684967,-0.0833114,-0.02352763,0.00012426484,0.06770084,0.10564056,0.04161246,0.04647957,-0.10416783,-0.060339823,0.0507152,-0.03955496,-0.07075285,-0.06516055,-0.023369089,0.013917894,0.042821374,-0.04266341,0.018339766,-0.0039985212,0.09353504,0.016806606,-0.055638377,-0.06839999,0.0009949238,-0.040790454,-0.0036364542,0.07193141,0.11102783,-0.0650933,-0.14070421,0.071119264,0.048002362,-0.061301693,-0.1385912,0.062902816,-0.06644519,0.080016136,-0.029987322,-0.059524257,0.009918707,0.018265152,0.004864881,0.014674445,-0.0036004789,0.0657293,0.033006866,0.063780434,-0.03506403,0.049490914,-0.03427752,-0.0029123938,0.035317134,-0.038491104,0.02576644,0.017396297,0.0030833294,0.013767353,-0.03155972,-0.020579036,-0.025340483,0.029266145,0.00678603,0.011082962,0.11079682,-0.0924219,0.06137768,-0.088224396,-0.07467862,-0.030060124,-0.057945598,-0.036064222,-0.087908834,0.022914743,0.0022881269,0.0847984,-0.04602485,-0.07775286,-0.010835765,0.07940771,-0.048434764,0.03129275,0.019980434,-0.009113965,0.09380711,0.05638432,0.072387144,0.0217702,-0.00065726147,0.060239412,0.10552084,-0.046597905,-0.031552248,-0.070422955,-0.038617197,-0.100410655,-0.05329572,-0.052990645,0.041291513,0.035507515,0.06599215,0.05284924,-0.012229284,-0.032401234,0.060702343,0.010645342,-0.037959274,-0.0054544383,0.05160815,0.004409882,-0.05035113,-0.018975617,0.06506021,0.09220777,0.015489772,0.04958404,0.091251984,0.082053155,-0.0044288035,-0.041509047,-0.09295866,-0.050779026,-0.06183316,0.04362867,0.056557722,0.07910394,0.026693914,-0.047622807,0.029106846,0.029581863,-0.042421702,-0.014922102,0.10582187,-0.06021769,-0.028519038,-0.0882718,-0.020802947,-0.015997315,-0.066031024,0.011558056,0.07631361,-0.069392696,0.101743095,0.06048644,-0.076932855,-0.029318288,-0.101201326,0.045713957,-0.072904676,0.04482473,0.04029636,-0.012246969,0.004209538,0.030012183,-0.079389356,-0.00521022,0.06142301,-0.093480594,0.07561865,-0.11493709,-0.01367467,0.06659979,-0.078224696,-0.07021998,-0.045200236,0.086378075,-0.09553037,-0.020687725,0.11690766,-0.08425691,0.029287912,-0.110451736,0.038847107,-0.052804057,-0.06454335,-0.03748799,0.103437684,0.028637867,-0.020183837,0.08005364,0.1152919,0.009376255,-0.033835057,0.06344046,0.04602033,-0.030897837,-0.0154212555,0.08131351,-0.0067337784,0.0339372,-0.08370601,-0.022424007,-0.11031862,-0.072012536,0.05133215,-0.080605924,-0.0009918108,-0.026042392,0.12232117,0.10674001,0.0516539,0.13544407,0.047829345,0.108031526,0.007856316,0.061831277,0.03441692,0.08985344,0.066153936,-0.037086397,-0.046911597,0.012229398,-0.08494501,0.004861404,0.06774936,-0.017585816},
		{-0.07611509,-0.018888941,0.08026248,0.024605688,0.09251181,0.10317272,-0.00890801,0.047624033,0.06402617,0.04070902,0.02064784,-0.0876685,0.006437448,0.029835487,0.027696535,0.085974745,0.0079004215,0.014123643,0.023372192,-0.058264263,0.11998342,-0.1151252,-0.11480305,-0.049100086,-0.13425523,0.025862012,0.06498321,0.060828898,-0.049298648,-0.06131301,0.0750647,-0.011879466,0.08765757,0.08754034,-0.053958725,-0.05086486,-0.060837112,-0.11028265,0.035173263,-0.03202934,-0.13198635,-0.06430863,0.027055217,-0.02741642,-0.030070378,0.13510269,0.001631638,-0.011673734,0.06415476,0.03389628,0.010983825,-0.11272231,-0.017816931,-0.062162492,0.075391494,0.025642926,-0.067444466,0.11448867,-0.09585685,-0.08447622,0.07640103,0.023024049,-0.08358961,-0.0044904286,0.026473599,0.06483447,0.0152271185,-0.09994799,-0.046642277,-0.03730367,0.037046384,0.06055243,0.013222631,-0.13090727,-0.061136633,0.0975153,-0.08537054,-0.06418218,0.051485043,0.0011727877,0.030770786,-0.083620414,-0.1129231,-0.13800006,-0.019137029,0.09042608,0.022830784,-0.037374955,-0.024397092,-0.048450492,0.018756248,-0.07472311,0.08326137,-0.056491688,0.062392842,-0.09256531,-0.12744382,0.07023373,0.11594673,0.07272943,0.03378835,0.029862065,-0.05228725,-0.074266925,-0.08435155,0.07386734,-0.027121104,-0.0017744899,-0.017701304,0.101872765,0.0060389675,-0.027642569,-0.12434589,-0.1262208,0.021201361,-0.09716414,0.04424137,-0.0032646598,0.10233556,-0.0038890524,0.11393113,0.0018484247,0.087646626,0.009037659,-0.052175775,0.036291346,0.00465251,0.10462254,0.054062515,0.017166914,0.0899544,-0.07548649,0.025717376,0.031149924,0.098781615,-0.076317355,0.008274616,0.08212955,0.08542101,-0.01743862,-0.0316028,0.12083173,0.043281578,-0.059076693,0.07605736,0.06402524,0.077815846,0.051339928,0.053692758,-0.013205171,-0.016445726,0.08632456,-0.014490486,0.040625386,-0.08806422,0.09378197,-0.0006153357,-0.026936162,-0.09186292,0.09069046,-0.022857185,0.026213365,0.0667691,0.006522999,0.14346324,-0.034168754,-0.02614262,0.117900126,0.11784584,-0.0654499,-0.043319274,-0.086915895,0.033158436,0.05268769,-0.084513634,0.11802516,0.14980143,0.04970881,-0.0009778312,0.028654685,0.19315994,0.11076365,0.01570717,0.0761508,-0.052874412,0.08369688,0.047242604,-0.09609929,0.09695515,0.047348592,0.12694696,0.075967796,0.018656587,-0.07084769,-0.004157671,-0.06077353,0.031772677,-0.042045478,-0.0033983935,-0.13791057,0.008034792,0.08861974,0.091595806,0.0015642935,-0.109001085,0.04765157,0.09795401,0.008318011,-0.077867374,-0.053277537,0.060124177,-0.046173923,-0.022484584,-0.025268426,0.12804268,-0.110992216,-0.026927521,-0.00066574203,-0.05435471,-0.08873193,0.02096061,-0.0354516,0.08298295,-0.0442286,0.044295598,0.011958371,-0.071437955,-0.16204306,-0.105789654,-0.0031137504,0.081485674,0.073304705,0.014977868,-0.11985953,-0.094519615,-0.104077905,0.003101113,-0.12050597,-0.017398585,0.054181214,-0.019738879,0.0225618,0.084989704,0.074317835,-0.008670546,0.056616668,-0.10510274,0.0031691806,-0.03294512,0.02619253,-0.08104627,-0.009052111,0.07551411,0.013877394,-0.01858566,0.090559155,0.071858905,-0.033374086,0.049191695,0.007124045,-0.062325243,0.050848205,0.07145506,0.08665341,-0.06657626,-0.0070705377,-0.02436497,0.107766025,0.014137163,-0.028804377,0.07829927,0.016917583,0.013302928,0.05545261,0.035433512,0.02045322,-0.10555349,-0.08720547,0.10820893,-0.0677176,-0.029725907,-0.019246222,-0.0047840844,0.09705103,-0.028234418,0.024665236,-0.045257192,-0.035284698,0.074037656,0.080847085,-0.08987132,0.018153898,0.05354984,0.02473772,-0.032617025,0.026808664,-0.008283787,-0.031456836,0.0043615545,0.11497679,-0.069968835,-0.01798204,-0.04070027,-0.008948415,0.0014657109,0.028868282,0.02928034,0.024494242,0.0916568,0.029898204,0.00507701,0.08539582,0.06853128,-0.07854613,0.062435724,0.09132933,0.065056406,-0.03526186,-0.11340183,0.025621131,0.049559902,-0.059646063,-0.07474217,0.07128666,0.056335617,0.049480766,-0.006764315,-0.01099723,0.013646789,-0.0134871155,0.051766265,-0.05491231,0.060673494,0.048510157,-0.064169854,-0.0495257,-0.052388627,-0.022176132,-0.049382396,-0.06760219,0.08010451,-0.053029347,0.015407007,0.09357039,0.024716975,0.043769103,0.075394884,-0.027567051,0.07275023,-0.037893366,0.11985786,-0.010591413,-0.0071616494,-0.031293977,-0.010711875,0.07654055,-0.014480458,-0.06842648,-0.0300891,0.02546113,0.081220575,0.055882387,-0.010855309,-0.014391013,0.044092957,-0.05173137,0.032990888,0.037329536,0.064266376,0.00697836,-0.003511048,-0.016073246,0.12663834,0.120839566,-0.054049265,-0.08908258,-0.072391346,0.08711316,-0.0137072755,-0.06605208,0.0029495754,0.109969586,-0.00053091656,0.025139647,-0.047323287,0.108233936,-0.013702934,0.093643084,0.14288796,0.11660863,0.05422126,-0.090830125,0.14929642,0.030693728,-0.005585874,0.026638525,0.11245032,0.10458289,0.10368906,0.041827712},
		{-0.0029292824,-0.07382181,-0.020286197,0.026768265,0.053130705,0.076672085,-0.10682548,0.022050787,0.018350873,-0.09911291,-0.08602231,-0.10616148,-0.0076585584,-0.092582405,-0.061287485,-0.09253312,-0.049694534,0.0070289243,-0.106277175,-0.03590828,0.009034664,-0.010357656,0.034589984,0.07308833,-0.08553738,-0.01652533,-0.036408722,0.013941319,-0.00252789,0.08482639,-0.027158342,0.06348197,-0.072217494,0.065141745,-0.043762144,-0.07010678,-0.05908064,0.06925922,0.07397509,-0.041372903,0.07720593,-0.005638275,-0.08847366,-0.048802502,0.09214895,-0.0644632,-0.040711038,0.061286174,0.08141028,-0.10553056,-0.03402738,0.09379659,0.03423148,-0.014225202,-0.09590973,-0.036494,-0.09902994,-0.047093317,-0.0040517296,-0.043982778,-0.10987158,-0.048849016,0.082330056,0.022695564,-0.051505256,-0.10137798,-0.00063366373,-0.059957843,0.001261609,-0.02711191,0.0035575782,-0.017834404,0.10013387,0.013287695,-0.03264166,-0.03106561,-0.0031180887,-0.048694916,0.05949238,0.07097272,-0.059763733,0.09310856,-0.015045387,-0.05850944,-0.070384316,-0.090093255,-0.0539373,0.096536174,0.09483222,-0.029311972,0.092488684,-0.10933748,-0.051047355,-0.053044915,-0.061923284,0.02763284,0.045442067,-0.10902477,-0.07282777,-0.05233456,0.05947047,-0.10255624,-0.032245375,0.014188604,0.10128314,-0.03648324,-0.0023594636,0.047626354,-0.051595006,-0.059321065,0.09327005,0.10344029,0.06378094,-0.07417184,-0.0736202,0.0791498,0.046019502,0.036118243,-0.10381692,-0.08040828,-0.0086790025,0.08570347,0.055281214,-0.07433525,-0.05951258,0.032389656,-0.093578726,0.102858014,-0.086329974,0.07848593,0.03993321,0.054624304,0.042597223,-0.0040722513,0.03360766,-0.03713883,-0.0028881752,-0.033412047,0.019933619,-0.07395283,0.06506376,-0.101505965,-0.040572695,0.0037660361,0.06476331,0.08033549,0.087581806,-0.028326191,-0.08304173,0.05011245,-0.028755112,0.050144088,-0.03881258,-0.082941934,-0.019407647,0.0001366683,-0.020719467,0.026924198,-0.026327293,-0.09514126,-0.013516369,-0.0029179596,-0.042589262,-0.09766286,-0.00800946,-0.012278501,-0.03532,-0.06194989,-0.055082265,0.061957598,0.08528177,-0.016132329,-0.078900345,-0.089290895,-0.052457593,0.0150337415,-0.10459487,0.068297856,-0.008807637,0.07516951,-0.020892153,-0.017346751,0.06896628,0.07572966,0.028908527,-0.080806926,0.057126805,0.03046457,0.01746389,-0.022426339,0.046735033,0.08251917,0.04898974,-0.046659254,0.04301517,0.07574621,0.07022981,-0.042598892,0.025887672,-0.08358307,0.044448525,-0.04479364,-0.03529419,0.006063585,0.09766306,-0.104848355,0.049592536,0.07198739,0.018279357,-0.015817018,-0.056457024,-0.09461521,-0.08818211,-0.07198291,0.024058592,-0.0011577749,-0.052293323,-0.05769681,0.045412432,0.0035133292,0.09426729,-0.05726399,0.08417951,-0.055153128,-0.011155932,-0.013832665,-0.05015846,0.06918413,-0.028988821,-0.010429724,-0.014998777,0.07013277,-0.074171804,-0.049892902,0.011100204,-0.05678664,0.052514978,-0.08130345,-0.03485922,0.08236354,-0.066555046,-0.028824436,-0.041908555,-0.09054777,-0.03670838,-0.08787866,-0.05227472,0.081346,-0.03326964,-0.06577154,0.0064155967,0.08682752,-0.010693244,-0.02711457,-0.10420584,-0.014365829,-0.09864633,-0.04494254,0.094753385,0.08121093,0.015411992,0.103073314,-0.05688676,-0.10621115,-0.063919276,0.015908202,-0.09920344,0.10370468,0.06871859,-0.03512499,-0.093578525,-0.015331803,-0.023864916,-0.039318662,-0.025514754,0.035970915,0.017787717,-0.0906398,-0.012886337,-0.074100666,0.024064427,-0.060547944,0.01966048,-0.06852004,0.050348077,0.075026825,0.05375214,-0.032354616,0.0968638,0.036019515,0.042831875,-0.027594618,-0.086419925,0.05097276,-0.028802665,-0.08597552,-0.052362114,0.046167716,-0.0037259925,0.08400299,-0.079668835,-0.06492205,-0.04863106,0.016742613,0.040926326,0.04790517,0.029770974,0.0020921347,-0.08980951,-0.02220564,0.048782233,-0.081170306,-0.018333737,0.038181007,-0.007400232,-0.013838801,-0.07056063,-0.048989177,0.07978335,-0.030712558,0.073937796,0.018437425,0.0990387,-0.084747404,0.09947368,0.0107916985,0.031554013,-0.013433277,0.091483586,-0.076389,0.07458726,-0.00638351,0.019620096,0.074114,-0.030223351,-0.00010501449,-0.08248516,-0.04678203,-0.0724433,0.09747624,0.045897067,0.025630545,0.07811485,0.03955157,0.024332818,0.061590698,0.044854492,-0.0060690804,0.029893167,0.07692303,0.0045443047,0.09297558,-0.08139402,0.07078424,-0.048408367,-0.02560323,0.049333412,0.04001087,-0.005692457,0.05275051,0.050037626,-0.023849426,0.005404186,0.07557905,0.0915932,0.010978794,0.014745675,-0.10136438,-0.060933474,0.087062,-0.011839586,0.008339844,-0.05751439,0.08417954,0.00212716,0.013771547,0.018121943,-0.06762492,-0.08926193,0.09166294,0.0695754,-0.04428322,0.080518834,0.06921063,-0.07739994,-0.09240907,-0.028103048,0.08571402,-0.004444933,-0.083276086,0.023814356,-0.006244287,-0.010907185,-0.10833491,-0.009557902,0.023313716,-0.06928986,-0.009719265,-0.0948369,-0.040620003},
		{-0.0059907367,-0.007532272,0.059591528,-0.07041635,0.026355328,-0.09261696,-0.08273538,-0.03737227,0.06549197,-0.096029386,-0.0023523576,0.13412294,0.025986658,-0.100100406,0.096577264,-0.005879161,0.12660803,0.034100592,-0.08823998,-0.07169209,-0.03265873,0.03203557,-0.10289577,0.06255967,0.016942015,-4.458214e-05,0.06054554,-0.031602364,0.043416455,-0.07984005,-0.0383525,0.026403625,0.13545406,-0.032790504,-0.07639525,-0.05030744,-0.042409766,-0.015387424,0.005663078,0.041144624,0.0746899,-0.060953587,0.068241514,0.05753508,0.058921404,-0.03340399,0.09620353,-0.08036495,0.00083504006,-0.043621596,0.009226107,-0.033789117,0.0040502623,0.040267125,0.022306696,-0.06119275,0.06950389,-0.014918306,0.010501245,0.109546214,0.10015197,-0.03626375,-0.10876362,0.016253259,0.019615248,0.05001523,0.08750085,-0.04561313,-0.03586997,0.0030552896,0.029167766,-0.059988946,0.031743288,0.008626917,0.03623067,-0.027994527,-0.013313125,-0.00041359986,-0.04540688,-0.0045833164,-0.056380805,-0.034568373,-0.09447398,0.021954,0.06945214,0.029148042,0.1412472,0.06902327,-0.05149449,-0.03090661,-0.0007621536,0.015618595,0.044712394,0.08747591,0.016649466,-0.02591537,0.073598124,-0.03430774,-0.075080805,-0.053915907,-0.06323503,0.031511363,0.081742235,-0.07111733,-0.06187699,0.007486703,0.03029998,-0.102776885,-0.07031081,0.03824406,-0.05472895,-0.060730647,-0.07503566,-0.0957421,0.060011197,-0.058157362,-0.053882092,-0.094790414,-0.0070667895,0.07394042,0.04210477,-0.10734996,-0.029819878,-0.060697086,0.0847292,-0.11016035,0.07650464,-0.09699005,-0.10600175,-0.010046656,0.09442147,-0.09203808,0.09988398,0.0024853696,0.042779367,-0.038559515,-0.022115624,-0.012069411,-0.09604376,-0.028328018,-0.055327594,0.03444363,0.058262356,-0.0753192,-0.02097269,0.0709728,0.07780937,0.0065696877,0.06813266,-0.030108342,0.106540635,-0.005648605,-0.09343954,0.029438108,0.063498594,0.03438712,-0.014916342,0.12774694,-0.02344258,-0.07207317,-0.044013117,0.004123747,0.15191005,-0.008839564,0.046056803,0.09789526,-0.009967185,0.04885389,0.086264774,-0.10477548,0.07966735,0.11282423,0.12154555,0.01754873,-0.042880196,-0.06085331,-0.011794656,-0.11130353,-0.020313784,0.035239834,0.06879204,-0.07723976,-0.07075518,-0.05818334,-0.023611873,-0.081975505,0.0047660465,0.063330665,-0.061921954,-0.013900432,-0.030225588,-0.012174141,0.044936728,0.05682725,0.028216071,-0.06774542,0.015476331,0.094225936,0.0319214,-0.10958361,0.09144275,-0.055839494,-0.106318854,0.103695735,-0.0061249062,0.09190352,-0.068623096,0.03853854,-0.059766434,-0.029303601,0.059966832,0.046207916,0.14769572,0.115082815,-0.08571478,0.017846724,-0.057530317,-0.011486188,-0.028891414,-0.030651405,-0.03318072,-0.04574399,0.124677725,-0.11314539,-0.030416345,0.031459536,0.03687236,-0.06378388,0.0120892525,0.0974904,-0.046909276,0.089972466,0.05754283,-0.090191446,0.08961813,0.0013815899,0.06093786,0.0654919,0.121792264,-0.08062926,-0.07163252,-0.08057101,-0.0015319597,-0.019450398,0.038511436,0.102055915,-0.052664865,0.09303546,-0.014563804,-0.029596545,0.023684677,-0.03935854,-0.037065055,0.09587076,0.015359045,-0.017686393,-0.055711664,0.020649653,0.046800077,0.07962805,0.096958816,-0.09632269,0.06460629,-0.08550641,0.05983319,0.0073497645,-0.089799486,0.070339285,-0.07369038,0.02703063,-0.05279757,0.103523806,0.027385125,0.03529833,-0.06888385,0.04090947,0.09406783,0.012583736,-0.021851487,-0.052930787,-0.09145658,0.028846836,-0.013962744,-0.043888483,0.06339672,-0.017922293,-0.028704273,0.073603526,0.032699022,0.072145976,-0.058626324,-0.107702054,0.0033990957,0.115079135,-0.12537251,-0.031758923,-0.040393785,0.047036596,0.007840409,0.05871323,0.026021536,0.062487986,-0.07137326,-0.08193274,0.01700388,-0.14096354,-0.16965526,-0.025893422,0.010416765,0.10704603,-0.038562957,-0.08663558,0.05134231,-0.021530781,-0.04207405,-0.007909546,0.021135945,0.10202183,0.08382638,0.028644176,0.03842408,0.13149202,0.0021735737,0.08810849,0.04774417,0.08082211,-0.08381227,0.028754683,0.074915245,-0.024748659,-0.048646975,-0.04519381,0.09049688,0.099438496,-0.0010687424,0.102671295,0.054839447,0.038477484,0.013358692,0.01324671,-0.034953468,-0.033457767,0.02556412,0.0014609699,0.100865245,0.008961777,0.052497696,0.016706092,0.07234537,-0.015702093,0.05306554,-0.049029883,0.055411022,-0.007614546,-0.040502913,-0.107611455,-0.13477556,-0.099847764,0.042032417,-0.051932607,0.037698586,-0.057981614,0.042222112,0.028112937,0.043103367,-0.035010356,0.06021177,0.14618756,-0.048314165,0.1193188,0.110365726,0.05556955,0.122854106,0.12059444,0.077073626,0.033073306,-0.09015211,-0.091232404,-0.068092346,0.086022444,-0.03569219,0.03029381,0.0017715731,-0.019619672,0.043801073,0.08776432,0.04832362,0.108185455,0.046778776,-0.0022816379,-0.061426394,0.012237592,0.017583583,-0.13373397,-0.07923095,0.059386898,0.05606099,-0.11789092,-0.09380132,-0.07513454},
		{0.06460968,0.10617708,-0.048230667,0.085976556,-0.11620296,0.11237939,-0.056266025,-0.01479433,0.00662406,0.019520434,-0.077304415,-0.10618463,-0.015193621,0.09394424,0.13021532,-0.059605528,-0.048382293,-0.027301343,0.09387071,0.058958407,-0.095061295,0.051527116,-0.03997495,-0.047477014,-0.074841954,0.032356855,0.065291785,0.00043778864,0.028700907,-0.062341895,0.0050437753,-0.029390944,-0.11548301,0.0016199027,0.063779026,-0.042529374,0.01733435,-0.014938779,0.06820281,-0.019343464,-0.040681943,0.075501494,0.010177732,0.0037091798,-0.046280924,-0.10436846,-0.00043906865,-0.06726886,0.03922238,-0.099723436,-0.028702058,-0.011827589,-0.068657786,-0.01982439,-0.068952784,-0.052106556,-0.06942567,-0.030853184,-0.0050316704,0.057959646,-0.042883202,0.048760127,0.057582837,-0.00525918,-0.06102906,-0.0410202,0.0051184813,-0.014382914,-0.040901236,-0.06823083,-0.019293105,-0.0025498378,0.017642513,0.100589715,0.0016093251,0.08834478,-0.11785708,0.13557991,0.09576382,0.07476414,-0.011032522,0.03325751,0.01239822,0.007802462,0.015549133,-0.028084196,-0.13180739,-0.06818779,0.045316756,0.012389675,0.050708003,-0.071580306,0.10611319,0.043039862,0.0031749597,-0.08773794,-0.031959195,0.058756836,0.02807232,0.03989364,-0.034435842,-0.0143064745,-0.051666163,0.03370411,0.08929859,-0.008337833,-0.033069137,-0.09975494,-0.07273979,0.07655563,0.024489313,0.07289755,-0.08812,-0.008348312,-0.0679888,0.01813844,0.042157106,-0.03974132,-0.043342076,-0.003002634,-0.06346345,-0.016384836,-0.036292706,0.081915334,-0.10536439,0.026176948,-0.031018242,-0.0051593897,0.11465145,-0.07721369,0.12284855,-0.0745857,-0.014108858,1.2070782e-06,-0.08948618,-0.06943092,0.0807821,0.051017206,0.109992795,0.041366003,-0.06983721,0.1008588,-0.054504894,-0.07203101,0.060143556,-0.052040257,-0.0301165,0.100525044,-0.007311563,0.048469726,-0.07547806,0.07269915,0.16143379,0.13954018,-0.09431558,0.01884662,0.038778678,0.04397505,0.019204622,0.060087893,-0.065766975,-0.026773432,0.043266576,0.03894139,0.10502452,0.038262915,-0.08492531,0.061695132,-0.046415053,-0.018841568,-0.075325996,0.035168752,-0.04167381,-0.034878775,-0.10380059,-0.067162,0.094348475,0.038881615,0.060245037,0.04410626,-0.047442522,0.09442473,-0.05468535,0.09716632,-0.05655158,0.018001525,0.04648043,-0.08301838,0.053090405,0.0738386,0.031023242,-0.095314145,-0.0673193,0.06899998,0.015818466,-0.07736317,0.07122284,-0.02437748,0.0831558,0.044931725,0.12064966,0.020146161,0.061113726,0.094358675,0.08601404,-0.045697432,-0.058132052,0.04387609,-0.06756739,0.07699186,-0.063273266,-0.03625278,0.032766297,-0.09959002,-0.08607296,0.03863446,0.03406624,0.03536607,-0.11271073,0.13311954,0.067628,-0.019357443,0.00382636,0.06593644,0.111055136,0.024076054,0.124588706,-0.06975646,0.10341869,0.017951041,-0.009771034,0.13878599,0.026113573,-0.08317928,0.064427175,0.02591321,0.04982955,0.050131675,-0.10291338,-0.06502244,-0.017626042,0.09225479,0.047091994,0.072807446,-0.053968526,-0.032003537,-0.06508976,0.081801794,0.09349012,-0.021055093,-0.0763622,0.03280651,-0.08410982,0.066802256,0.06001463,-0.0338318,0.034034118,0.033913046,0.026038058,-0.048185155,-0.040033218,-0.08146449,-0.086622104,0.052985612,-0.04648591,0.0064860885,-0.08806735,0.04531201,0.031947393,0.08766746,0.06225682,0.013403912,-0.064701416,0.07549457,0.007879457,0.07207657,-0.079397395,-0.023852475,-0.096634015,0.082863346,-0.050717767,-0.027083823,0.10990662,0.0017103382,0.018324578,-0.082704596,-0.04769577,0.04899574,-0.015086273,0.08141132,-0.021982893,0.06411812,-0.0661581,-0.010891295,-0.043191943,0.11173277,-0.08064818,-0.014369845,-0.008125854,-0.07886288,-0.08977319,-0.06170188,-0.0056980755,0.07757694,0.014594773,0.13056831,0.07572857,0.10910692,-0.09612992,0.13522081,0.024865478,-0.049693175,-0.024013622,-0.054679256,-0.051788244,-0.0055657155,-0.051509317,-0.0023172763,-0.07788133,0.063643225,-0.06398383,-0.021154284,-0.08416603,0.082481444,0.017032478,0.03734532,-0.06842689,0.028589742,-0.050779898,0.060449284,0.033136707,0.06719002,-0.12753442,-0.009772666,-0.061646957,-0.0970715,0.12423258,0.07497586,-0.094478205,-0.052683942,0.020593762,-0.05756145,-0.0067579974,-0.08963755,-0.082871646,-0.02986947,-0.058546044,-0.09255877,0.07193588,0.08597251,-0.03815828,0.076759264,0.020314131,-0.033614814,0.07419801,0.012172353,0.09728379,0.053181447,-0.039924283,-0.068627335,-0.0129088955,0.029641647,-0.08397364,-0.14509852,0.09468425,0.11055879,0.10833297,-0.101185046,-0.09769025,0.08858348,-0.045616623,0.13901336,0.100211546,-0.081619464,0.06984641,-0.07600341,0.11007648,-0.065761596,-0.0026433354,-0.041892584,-0.043707244,0.03994418,-0.10937101,0.0582386,0.03210461,0.1611244,-0.0107770115,0.05613899,-0.0617847,0.09761241,0.099673025,0.07203745,-0.09231348,0.015153872,-0.014522987,0.03617595,-0.012777713,0.10605003,0.04440744,0.04032376},
		{0.08033314,-0.120101966,0.09461815,0.06401404,0.037859682,0.09915533,0.038423672,-0.012743696,-0.04142761,-0.056441195,-0.05690034,0.1092019,0.056928497,0.09585776,0.006216295,0.0047042137,0.065134935,0.09030236,0.04527719,-0.04527516,-0.038599763,0.07532983,-0.01068107,0.106539816,-0.058623303,0.06336573,-0.060823485,0.06555011,-0.05826348,-0.064570755,0.110501125,0.105069295,0.021842785,0.102038555,-0.015988993,-0.0043465695,-0.03181132,0.03419374,0.094359845,0.068839885,0.06795633,-0.00091199996,-0.031080823,0.051455956,0.038878568,-0.03931684,0.035316464,0.049378566,0.016293436,-0.094981715,-0.07994112,-0.05812601,0.10108654,0.047966234,0.02795549,-0.065151,-0.042017113,0.059183713,-0.02176485,0.08580949,-0.081426114,0.022278523,-0.07101688,0.05795296,0.08164435,0.03215008,0.056734726,-0.026557632,0.038661476,-0.047251694,0.012976541,0.014484201,-0.02040959,0.030330064,0.09329149,-0.0011694072,-0.05003015,0.036758862,0.023912152,-0.07822141,-0.09791454,0.049386956,0.0078178905,0.021536786,0.02726596,0.029998332,-0.053912334,0.018687245,-0.025004327,-0.002103767,-0.043306306,-0.016343571,-0.051068686,0.07124961,0.10944286,-0.03099599,-0.07482575,-0.03381095,-0.04675759,0.017504713,0.10120166,0.02422049,-0.056953076,0.10082681,0.0045152754,0.0026817361,-0.01795459,-0.07606829,0.09474097,-0.05415312,-0.0753119,-0.065314434,0.036175795,0.018901799,0.107238494,0.047254402,0.016431034,0.02985441,0.013482294,-0.020609828,0.011204061,0.09803211,-0.097494245,-0.010346121,0.010210305,-0.12896374,-0.06267114,-0.019369999,-0.036941037,0.026450748,0.07292812,0.07310559,-0.07568035,-0.07238484,-0.08115011,0.08763613,0.11579752,0.1101996,0.027963625,-0.0341619,0.018329691,0.081961095,-0.062223725,-0.07236671,-0.053174872,-0.022852398,-0.098848835,-0.080806665,-0.014897613,-0.079160996,0.032753278,-0.016102301,-0.051807545,0.05643893,0.08993615,-0.056978233,-0.0846242,-0.10409403,0.07851989,-0.005084448,0.033693727,-0.041005127,0.09134392,0.09964907,0.06364599,-0.062081654,0.013010893,-0.01617649,0.02389885,0.07832215,-0.07107914,-0.01813883,0.014796401,0.019658927,0.014009753,0.08209234,-0.115561865,0.0023863162,-0.0066220174,0.035211224,-0.106939174,-0.0062277433,0.024478622,0.03519707,0.06544365,-0.040474314,-0.03584979,-0.08800719,-0.0969911,-0.024079062,-0.03308198,0.080635935,0.019857967,-0.07793547,0.07695248,-0.07490487,-0.088241614,0.073331736,0.016953938,0.07107379,-0.08375551,-0.034662172,0.0035333296,-0.08570829,-0.025723506,-0.057094418,-0.04817157,-0.09983254,-0.05577948,0.003345187,0.044663094,-0.017311879,0.10651061,-0.056939807,0.03827143,0.038333688,-0.08626807,-0.103168994,0.07263885,0.094923966,-0.020308161,-0.02818365,-0.11630239,-0.08770676,-0.04297744,-0.09267225,-0.031069065,-0.012985202,-0.04139747,-0.13774249,-0.07737024,0.08638939,-0.06957513,-0.04346568,0.011898231,0.008319961,-0.06973884,-0.0089537,-0.06955705,-0.08547161,-0.051519416,-0.04388438,-0.00072083186,-0.012610359,0.114760414,0.035221178,0.022282535,0.026611881,-0.024945356,0.049736004,-0.029249402,0.060702115,0.0037781645,-0.0630286,-0.07669029,-0.019091675,0.011606616,-0.09293909,-0.020363396,-0.10024422,0.023995975,0.079017006,0.040876016,0.08076573,-0.015905116,-0.09129582,-0.072553664,-0.04058996,-0.10660587,0.058711287,-0.061837494,-0.085615404,-0.09197411,-0.10023536,0.07830403,-0.06437402,0.048210427,0.02242111,0.032728728,0.044691175,0.038730092,-0.046012614,0.052344296,-0.09414854,-0.1016492,0.03571429,0.057538327,0.054603238,0.08481423,-0.02995208,-0.012751514,-0.05760646,-0.113178976,0.03411828,0.05320825,0.02510107,-0.06386334,0.053916883,-0.09427315,-0.087231256,-0.11827982,-0.039829526,0.002765946,-0.11099789,-0.034576416,-0.09585796,0.048345868,0.010120357,-0.111597955,0.03194814,0.06600271,0.089835905,0.11749661,-0.0047855615,0.035363633,0.019557191,-0.09666907,0.104983754,-0.08059217,-0.11561259,-0.028401535,-0.01586861,-0.040100396,-0.033600688,-0.022449119,0.06233393,0.057120707,-0.072676264,-0.060722392,0.05077485,0.05675877,0.07861249,-0.0053920737,0.058771357,0.08825245,0.021609591,0.021408336,0.0633287,-0.07455467,-0.05940406,-0.042897686,-0.012343463,0.03615197,0.043338586,0.048230678,-0.041285235,0.013665143,-0.09828207,-0.07568107,-0.104144864,0.03398915,-0.0014128636,0.07663906,0.09039298,0.008681598,-0.010389332,-0.057652764,0.036585364,0.032850396,-0.113981806,0.116344206,0.07868141,-0.103914484,-0.074941024,-0.11024959,0.08349773,0.10512796,0.08399024,-0.04632063,-0.021688495,-0.0411377,-0.015774298,-0.057456378,0.0719599,-0.045723487,0.07741433,-0.112088606,-0.04016412,-0.031667504,0.085239746,-0.035309758,0.09492408,0.08340645,-0.05350526,0.11579032,0.105017245,0.06269766,0.004207694,-0.0031145213,-0.059113715,-0.025658213,0.0028386852,0.06661958,0.041861393,0.051392674,-0.112920105,-0.11533912,0.012774067,-0.0047675106,-0.05700489},
		{0.09210666,0.0777578,0.026021453,-0.13245231,-0.051758684,0.086050935,0.06511371,-0.14965482,-0.13557221,0.056019556,-0.07669987,0.06308866,0.09355116,0.118804425,0.09011338,0.06864599,0.0089908745,0.007589576,0.16197488,0.13327688,0.007981144,0.06228258,-0.05047079,0.018816836,-0.0055321464,-0.064653076,0.010531579,0.061435945,0.016622469,0.07585915,-0.0083961645,0.0102138305,0.037841447,0.15334497,0.0441154,0.07858085,-0.00023232267,-0.027365956,0.057073906,0.07567465,0.027087644,-0.017481683,0.03634157,0.07435208,0.004974784,-0.062234934,0.113351285,-0.040297486,0.024190756,-0.029967843,-0.07449214,-0.01790129,0.012910761,0.09680712,-0.0008802939,0.020876601,-0.03842855,-0.03366535,-0.077809095,-0.0484009,0.07494502,-0.009332748,-0.13536568,-0.13845178,-0.109831184,-0.017731365,0.0755761,0.105364904,-0.0629387,-0.08974843,-0.044286773,0.07886836,0.13479823,0.027293956,-0.05099032,0.08946394,-0.009217612,-0.04870281,0.031652126,0.085613735,0.0055301003,0.05666713,0.025608426,-0.09196476,-0.121780336,0.009479513,-0.07911754,-0.041842714,0.0081935,0.034749765,-0.060929682,0.05662619,-0.087764114,0.09431246,0.033771716,-0.053671964,-0.04568978,0.04741493,0.101979494,-0.053986855,0.08705973,-0.0003464732,0.11652672,0.04862091,-0.10269394,0.036403935,-0.07611281,0.04582653,0.06714079,-0.00843444,0.014302682,-0.10866832,0.0023387214,-0.08852103,0.08857413,0.07227901,-0.011205158,0.04733452,-0.07493792,0.10460244,-0.09130839,0.05938432,0.023481121,0.058422774,0.03504576,-0.10918572,-0.11453184,-0.090027496,0.0124650225,-0.011066234,-0.04003371,0.05436396,-0.03234296,0.0018319166,0.0875535,0.0970455,-0.08235477,0.078937106,-0.013319504,-0.07714241,0.0671343,-0.020742754,0.053518876,0.03860386,-0.10799751,0.045450017,-0.089936696,-0.011778181,0.0069544576,0.040926937,-0.022375913,0.01743466,0.044754818,-0.050422765,0.0075483187,0.0060386765,0.107862666,-0.031557187,-0.026374156,0.07315631,0.07462876,-0.02782554,-0.005307232,0.01094733,-0.021458296,-0.0453114,-0.05835613,-0.035216305,0.032681204,-0.054513235,0.074667074,-0.016544884,-0.114423074,0.027280893,0.017210942,-0.10272776,-0.035595026,-0.072634935,-0.06873156,0.01748323,-0.032721933,-0.09098825,-0.081383884,0.021800954,0.02748217,0.025566714,-0.081919886,0.0818343,0.02255167,0.06077833,0.07467302,-0.02248003,-0.06311073,0.05556786,0.023143707,-0.055619396,0.07618653,-0.08650214,0.034850184,0.016559768,-0.06643418,0.11564234,0.055483136,-0.07795084,0.059962034,-0.09651706,-0.0065016286,-0.09750555,-0.043826044,0.12017517,-0.02215153,0.0455092,-0.07920465,0.12188072,0.076628655,0.090114675,0.026540611,0.062153313,-0.065641895,0.119336754,0.040960364,-0.10558161,-0.018467221,0.010177464,0.016889075,0.047676355,0.121720396,0.062763885,-0.0886836,-0.09963007,0.10396667,0.021901537,-0.028322823,0.037937373,-0.14636222,0.05096843,0.036500294,-0.048731603,0.05116524,0.033550907,0.034498952,-0.07516137,-0.08889033,0.07211649,0.024616607,-0.08464987,-0.10512034,0.010868006,-0.09474661,-0.06918454,0.045099802,-0.05908042,0.07655531,-0.029089084,-0.022610653,-0.00023169538,-0.059572976,-0.012251564,0.05028147,0.008127535,0.0008532518,-0.077779844,0.07430715,-0.027259057,0.10481215,-0.031804956,0.038870625,-0.056023154,-0.035864398,0.08201614,-0.091829814,0.0034976283,-0.0057203365,-0.012544571,0.04502942,0.0152854305,0.113636225,0.014444424,-0.054414604,0.031070055,-0.09521824,-0.05582955,-0.03548426,-0.030581785,0.11723356,0.027300635,0.018019324,0.097233705,-0.00084569794,-0.07890658,0.026183762,0.07598982,-0.06405373,0.0010583999,-0.034316044,-0.06994486,0.06322992,-0.0656206,0.053771522,0.007960475,0.07699374,-0.07370531,-0.1220775,-0.1038543,-0.025161987,0.026427874,-0.08009585,-0.054222737,0.03573778,0.085654005,0.08406502,-0.096394345,0.09175963,-0.03228915,0.0720739,-0.029563095,-0.087785065,0.11489991,0.14567807,-0.009703385,0.05423399,0.11247913,0.05085111,-0.100955345,0.07523198,-0.018770145,0.12596944,0.17544128,0.15856232,0.015168008,0.06130809,-0.06106377,0.10382644,0.05752082,0.0020385776,0.039199032,0.032290373,-0.11461036,-0.072912276,-0.1257912,0.025469132,-0.0029457398,-0.05791829,-0.12685044,0.059254833,-0.07750446,0.0447837,0.017753318,0.076721996,0.03635921,0.09907484,0.06158691,0.0039896113,-0.036506012,-0.021651266,-0.043164264,-0.02154456,0.038430475,-0.061565697,-0.097463235,-0.002022282,0.00319902,0.061776154,0.088653,-0.04686685,0.07077922,-0.08594682,0.10780025,0.1091087,0.013372319,-0.08301979,-0.045750543,-0.026693828,0.07690972,-0.04950988,0.06633197,0.07341918,0.07680073,-0.051789094,-0.006533569,-0.10818159,0.08226058,0.056223128,-0.01663927,-0.04504896,0.11595913,-0.05434946,-0.032647233,0.011249229,0.10092408,-0.05837683,-0.08640716,-0.089174785,0.0012899679,-0.053234845,-0.037494324,0.108148284,0.10531397,-0.06706691,-0.09233282},
		{-0.005693665,-0.037858367,-0.042610835,0.0012709792,-0.07890858,0.057737816,0.014277768,0.07145608,0.019469798,0.14032148,-0.10513513,-0.11558736,-0.024043078,0.048439935,-0.018328965,-0.17791484,-0.08153122,-0.0913745,0.055328276,0.0038954057,0.04993232,0.0645076,0.027287925,-0.07144548,-0.07175228,0.04523429,0.013744491,-0.036996838,0.06797088,0.06314352,0.060277544,0.06534927,0.07766201,0.04862411,-0.039587744,0.023002991,-0.018898552,0.007941627,0.03080016,-0.066974744,0.11467728,-0.10576659,-0.051878024,-0.048157874,0.041762125,-0.13477829,-0.0488593,-0.041338768,0.100730136,0.07579055,0.11481748,0.031103978,-0.041716453,0.07349923,0.0049512056,0.08620011,-0.10307448,0.037582442,-0.055975787,-3.2821223e-05,-0.016960366,-0.046917833,0.118957646,-0.05071315,0.07628209,0.03745607,-0.07337722,0.11093357,-0.07772086,-0.06345332,0.05637999,0.059254702,0.053808425,-0.096378535,-0.094110966,0.03366223,0.13826087,0.0008048917,-0.0869612,-0.08574169,0.06330935,-0.021132506,0.03728365,0.07952673,0.081436,-0.06627016,-0.008684085,0.012759473,-0.004416911,-0.061837368,0.04438428,0.14112352,0.005763186,0.053738456,-0.015759122,0.032291554,0.07022294,0.09323835,-0.021775823,-0.030215306,0.08049119,0.1083409,0.03698612,-0.03115724,-0.0038202303,-0.07049604,-0.0677312,0.01559668,0.016749773,-0.057258274,0.013145979,0.013867302,0.06866673,0.07039885,-0.056989167,-0.0689544,-0.056233365,-0.015503421,-0.08328691,-0.04887251,-0.07312318,-0.11578691,-0.06276478,-0.087047316,-0.080364145,-0.1085388,0.018616872,0.0055297757,0.029924838,-0.040393203,0.08290477,0.032653976,0.08237456,0.06448232,0.10759263,-0.08738616,-0.07794698,0.05717175,0.098938674,-0.054341126,-0.120266706,0.03793623,-0.09529334,-0.076243564,-0.036357462,-0.109957546,-0.08488749,-0.057011638,-0.01945901,-0.067462206,-0.008809932,0.012667214,0.048365504,0.0074577625,-0.0659191,0.09408018,-0.011197812,0.046010833,0.10725542,-0.12956427,-0.032653358,0.034646865,0.07981101,0.12503992,0.102884576,0.017599385,-0.033967935,0.023236254,0.019143227,0.06310332,-0.12568463,-0.058628995,0.0038209157,-0.025852123,-0.06659567,0.048948407,0.022958932,-0.046985906,0.12270153,0.06903237,-0.06510337,-0.056466762,0.021103546,0.05606594,-0.09318783,-0.100085594,0.03168509,-0.08518903,0.08674389,0.012363567,-0.055016834,-0.09203051,-0.07954455,0.106244884,0.032070138,-0.014849847,0.058392536,0.05324992,-0.0078419605,0.0056954413,0.007467279,0.096374825,-0.15190408,-0.046080116,-0.108162716,0.0021125576,-0.07130631,0.1116213,0.12912975,0.041207813,-0.09152787,0.030486438,0.06862619,0.14728597,-0.041143652,0.06839292,-0.00017502341,-0.026452579,0.06591639,-0.05778111,-0.037305683,-0.029562717,0.08436173,0.0831381,-0.08470922,0.082484104,0.0036214634,-0.0062813303,-0.03328387,-0.03259605,0.0030711743,-0.07568145,-0.099592574,-0.015680237,-0.026595077,-0.03994703,-0.07446285,0.11109172,-0.029160583,0.08015361,0.020964056,0.031302866,0.09491538,-0.071524404,-0.035151307,-0.0040480536,-0.018323626,0.07892241,-0.034633983,-0.112522416,0.085292585,-0.018582078,0.067963324,-0.031269826,-0.033581167,-0.017983122,0.07745267,-0.045067493,0.10204316,-0.014838354,-0.08811218,-0.021872886,-0.031481713,0.0975713,0.07479944,-0.047591045,0.05898657,-0.029918788,0.046695035,-0.012343873,-0.060958754,0.07734967,0.054216187,0.013827577,0.043048188,-0.010598818,-0.11488449,-0.10208805,0.031912122,-0.09627704,-0.02428799,-0.13432592,0.00487835,0.18296956,-0.018578924,0.0962693,0.017949909,0.061795644,0.06424226,-0.044026718,0.053167272,0.093152836,-0.09994919,-0.06311602,-0.0850428,0.002856594,0.029801385,-0.11991822,-0.059094615,-0.042663492,0.024213923,-0.091673546,-0.044399157,0.090981655,0.049716167,-0.019498585,-0.019654837,0.10677379,0.06489888,-0.038595498,0.035623174,-0.11883269,-0.09765968,-0.056178115,-0.023457015,-0.0042606066,0.002804361,-0.015485494,-0.062291708,-0.09316369,-0.055937957,-0.050755285,0.11416636,0.0445591,0.058544114,0.023866575,0.11302244,0.14450644,-0.02785399,0.04984295,0.10054221,0.0027731985,0.021454364,0.03578635,0.104116715,-0.0454312,-0.0646973,0.07993707,0.07878934,0.027783917,0.112773456,0.0040871482,0.0010926885,-0.023512494,0.028960053,-0.029777076,-0.13880077,-0.10618847,0.027390527,-0.020444252,0.11585339,0.106179394,0.028996067,0.046648875,0.009077616,0.095734894,-0.024191251,-0.05024105,-0.008425059,0.09455028,0.089643426,-0.0359243,-0.05101948,-0.0043383916,0.07897423,-0.14490321,-0.10660863,0.036948968,-0.04254246,0.10214039,-0.052285176,-0.081160255,0.13596137,0.070599124,-0.10587088,0.13338491,-0.053051025,0.02166384,-0.0095095895,0.0766106,-0.07655707,0.08832189,-0.0005430741,-0.10994824,0.08327358,0.05124081,0.10598463,0.030070111,0.0688754,-0.063981436,-0.102019064,0.1029531,0.09036339,-0.0942479,0.027014766,0.040085293,-0.094745345,0.046171464,-0.03991712,-0.11711302},
		{0.0066214963,0.031259723,-0.03838333,-0.035936184,0.10204911,-0.05579271,0.05300387,-0.037751526,-0.095206834,-0.00012994037,-0.0368661,0.015126892,0.07906342,-0.106897086,-0.073854096,-0.09536702,-0.06666505,-0.05181528,0.061321627,0.040915463,0.043113217,-0.07809617,0.0034723538,-0.10486749,0.031092176,0.0925213,0.015553814,0.02353134,-0.060506575,-0.086824425,0.015783431,0.009921704,-0.09537961,0.061523013,0.056078672,-0.051550224,0.03978531,-0.032457963,-0.073212884,-0.037769664,-0.014693241,0.04315572,0.032167967,0.09964663,-0.0649118,0.092993,-0.054634474,-0.014806145,-0.09544932,0.01746168,-0.08464837,0.10353894,-0.043519106,-0.069268085,-0.0056242715,-0.07614378,-0.06340446,0.014869846,0.0634121,0.015855402,-0.042819593,-0.07850524,0.0016860577,0.013730264,0.09971338,0.07712119,0.013576797,0.06565682,-0.03809728,-0.07902378,0.07561759,-0.098411255,0.019027704,0.0011697639,-0.017223889,0.093605585,0.07820128,0.011125081,-0.03785077,0.019806707,-0.05330949,-0.029926673,0.06523362,-0.107062675,-0.059167605,0.086913176,-0.045835845,0.07958337,-0.037765294,0.049558304,-0.092229575,-0.07414255,-0.039302763,0.07800516,-0.035095427,0.0828417,-0.030188534,-0.0474219,-0.086532906,-0.0017272241,-0.031371053,0.0048874803,0.042153224,0.029624376,-0.040648483,0.037041143,-0.03807123,0.007304158,-0.050610613,-0.058668878,-0.0464424,0.02037515,-0.086605705,0.007160949,0.06916026,0.0014668901,0.002108654,-0.06567536,-0.014575716,0.09646721,-0.08935757,0.051227003,-0.067702524,0.049617387,0.032150935,-0.07960743,0.06860651,-0.013055662,-0.05105591,-0.049582794,-0.01570522,-0.022036487,-0.07149265,-0.07865906,-0.07861785,-0.025573332,0.032434553,0.0906895,-0.02182026,-0.06358075,-0.062498745,-0.04935293,0.009210265,0.034080084,-0.09301548,0.05787749,-0.013014623,0.010504301,-0.06539961,0.08917889,-0.03457813,0.008745393,0.08784677,0.020580448,0.04703804,-0.100289606,0.021601787,0.0032375187,-0.10705421,-0.07869589,-0.09811491,-0.07148268,-0.04127223,-0.091781005,-0.0012105805,0.016202439,-0.023154166,0.01021502,0.02711768,-0.08082241,0.002356379,-0.062214952,0.078890726,0.041231386,0.0006238655,-0.024858605,-0.077680655,-0.07636276,-0.03705197,0.085575,-0.0920884,-0.044027243,-0.023991212,0.08030871,-0.04504639,-0.083034106,-0.002707352,0.10332375,0.058063705,-0.07340333,0.08148154,-0.10107327,-0.052020177,0.009878212,0.07945679,0.05829966,0.05524202,0.028113432,0.07075836,0.08623055,-0.0662128,-0.031188767,-0.02775896,-0.1063082,0.04313762,0.07639147,0.00035016294,0.07512142,-0.026358087,-0.06355339,-0.015902976,0.038752314,0.07154728,-0.0981214,0.039930113,0.061810482,-0.006276163,-0.06420509,-0.0680898,-0.09820028,-0.06750476,-0.0072322693,0.02536685,0.090943865,-0.014908562,-0.01237267,0.053639557,0.10341721,-0.014309135,0.10114138,0.0004786797,-0.104825184,-0.03130538,-0.06427855,0.068248585,-0.02012106,-0.02547352,-0.04671721,-0.028691586,0.028974948,-0.036501642,0.04234265,0.07342091,0.037859224,-0.028625812,-0.0746593,-0.08017423,-0.032334458,-0.00057960127,-0.01242955,-0.048963744,-9.481333e-05,0.019978391,-0.09821617,0.0775185,-0.07191761,-0.07276826,0.09507066,-0.10343056,0.03897279,-0.09868934,-0.024722137,0.0035816683,0.09362086,-0.08295446,-0.018576382,0.052466653,0.06555096,0.10570281,-0.09670479,0.052935537,0.039786782,-0.100672565,-0.08366582,0.05732518,-0.050397247,0.038965702,-0.07646176,-0.039875854,0.019200737,0.10026411,0.07863951,0.10427025,-0.037250113,0.0564709,0.049236044,0.004706426,0.085271,-0.03662797,-0.02321899,-0.051849887,0.05006776,-0.07174601,-0.062131245,0.099483304,0.046851568,0.022140501,0.034284584,0.024830673,-0.06887063,-0.104918286,0.07755029,0.06636496,0.031398505,-0.10305447,-0.064581335,0.08138418,-0.04771535,0.04107324,-0.059920926,0.043518018,-0.073348574,-0.029554762,-0.05946711,-0.08949766,-0.09732215,-0.03718136,-0.04443047,-0.09339634,0.013204465,-0.09216873,-0.051799726,0.052706696,-0.09265111,0.088450156,0.10614099,-0.10350671,-0.0019735293,0.029321223,-0.036334828,0.032709185,0.008884864,-0.09683764,0.094429575,-0.072144866,-0.089102544,0.048690725,-0.04718466,0.07986725,0.077008806,-0.0059365393,-0.025683822,0.045984294,0.010118442,-0.06464478,-0.039234024,-0.08529933,-0.10122817,0.04141327,-0.030561065,0.0031624676,0.08527874,0.10707234,0.0438442,-0.08933515,0.04211868,-0.055106115,-0.079546876,0.03192429,0.07606643,-0.09991152,-0.04384631,-0.08363256,-0.020008845,-0.02224668,-0.074282125,0.08588509,0.05262407,0.021948755,-0.038638726,0.05162048,-0.03259364,0.06434683,-0.093563214,0.08872825,0.06781915,-0.08227063,-0.07557557,-0.016225671,0.1017989,0.06404164,0.0576448,0.04723983,0.024922635,-0.029621469,0.03421843,-0.077255726,0.0056419396,-0.0686996,0.059661046,-0.029818181,0.027103774,0.04222783,0.04891013,-0.008790576,-0.06319549,0.020003272,-0.091295704,-0.03143719,0.02346223},
		{-0.021854434,-0.046899784,0.006215109,0.09783717,-0.026858289,0.055740125,0.09361565,0.12931764,-0.04120474,0.07229957,0.030849112,-0.0751337,0.056245845,-0.023507835,-0.08856581,0.02682924,0.1318833,-0.08238338,-0.04204536,0.06035641,0.041328892,0.07946748,0.02732644,0.006785399,-0.070158154,0.049781445,0.033354443,0.039573867,-0.08892325,0.07118442,0.084681526,-0.08037202,-0.03335685,-0.08010686,0.058697578,-0.063144505,0.061235946,-0.05417156,-0.016747428,-0.045992944,0.038301334,0.02725571,0.042186722,-0.033066183,-0.07093125,0.086464,-0.08196995,-0.07,0.005147587,-0.07639311,0.06957906,0.0055665993,-0.08092231,-0.02096654,0.023688525,-0.13834205,0.011555159,0.011248627,-0.028103476,-0.052339062,-0.08844073,0.008783777,0.042227164,0.049678575,0.07419345,0.03439717,-0.032478575,-0.07739729,-0.016390415,-0.01923755,0.06892026,0.009246937,-0.060270336,0.0465516,-0.06949662,-0.009036154,0.03883371,-0.017959207,-0.09836467,0.08565976,0.030856341,-0.09183847,0.03144544,0.09083663,0.12064488,0.048211336,0.12184822,-0.097860284,-0.03695381,-0.07746565,0.027752982,0.08800186,0.0017497623,-0.024209075,0.021962957,-0.04986576,0.06362703,-0.07038337,0.09015265,-0.0035887915,-0.09167884,0.025223764,-0.07684206,0.0579445,0.0010483912,-0.006852734,-0.028863672,-0.096207,0.091504276,0.072878875,-0.027687699,-0.10658461,-0.0758376,0.048272066,-0.09821876,-0.053455733,0.036523215,-0.0050148233,0.07782731,0.060805872,-0.04989485,0.020458013,0.04595702,-0.071699716,0.058323737,-0.08141467,-0.029130828,0.070731685,-0.0037713791,-0.09407755,-0.05655339,0.0071189483,0.09391245,0.05917553,0.015364793,-0.089607924,0.08261017,-0.03577432,0.0669906,-0.010811139,-0.034011174,-0.030164741,-0.071622126,0.02269679,0.011157349,0.047175106,-0.055604834,0.01103642,-0.045112118,-0.10276751,0.004213366,0.09069938,-0.0018752203,0.060737617,0.07906424,0.08819089,0.063575394,0.106295645,-0.04646684,-0.05608019,0.08426628,0.016539931,0.015862374,-0.0016269996,0.06643403,0.04460386,-0.08448207,0.113077804,-0.050509356,0.08997956,-0.08737135,0.082058795,0.008817853,-0.042189218,-0.08644827,-0.063498415,0.019191228,-0.09081021,-0.100559115,0.030491637,-0.047074303,-0.11456497,-0.04339763,-0.017006338,0.049077816,-0.10549749,-0.032049336,0.060549144,-0.109235704,0.08858239,0.043948464,0.041687444,0.067220405,0.034774583,0.034671757,0.026781186,0.090734184,-0.091046154,0.133929,0.032054033,-0.02283749,-0.105190285,0.034470942,0.062343318,0.025713768,0.049572144,0.05189391,0.06421083,0.13294698,-0.09467716,-0.09102789,-0.06628461,-0.058124635,-0.040653873,0.07115029,-0.024404367,0.04919035,-0.11266946,0.08720043,-0.028327165,0.049926788,-0.057673194,-0.07138936,0.04947442,0.089993775,0.03226607,-0.038978722,0.022491887,0.041236915,0.03635662,-0.033236627,-0.10449537,-0.042570673,0.10588466,0.009133257,0.035079867,0.045347262,0.06054051,0.040883057,0.08621549,0.086592026,0.07416186,-0.04673092,-0.020190712,-0.07016465,0.015640492,-0.075825304,0.044483047,0.00832655,0.11161024,0.0019709084,-0.028798254,-0.015691815,0.041476954,-0.014277699,-0.06412337,0.045126066,-0.06023875,0.062552065,-0.030731048,-0.02188226,-0.10846123,-0.0821073,-0.08718532,0.04283965,0.0814882,0.086249426,-0.015162862,0.061834034,-0.09271725,0.09414857,0.033668786,-0.091420844,0.060918912,-0.03453275,0.016759675,0.080099866,-0.01873157,0.01339152,-0.022757672,0.017046327,-0.024901547,-0.038646948,0.08976682,-0.11089638,0.0742077,-0.033111777,0.018495336,-0.065569006,-0.00073961006,0.011099332,-0.06751842,0.07349055,-0.041583057,0.04082876,-0.119828895,-0.03659471,0.08935544,-0.09444588,-0.04754542,0.014724015,-0.06842939,-0.07916512,-0.039166324,-0.08044112,0.078336395,-0.0006546677,-0.0917198,0.038161192,0.0953501,0.031191979,-0.1016913,0.016254041,-0.037492476,0.047779612,0.018800989,-0.114740744,0.06443295,0.01500027,-0.101145215,-0.056407806,0.013411854,0.0035336574,-0.023685535,0.0007446735,0.023139725,-0.023961453,0.052653126,-0.09132051,0.011425674,-0.12115532,-0.07044678,-0.010472571,0.12955473,0.012707048,0.08911001,-0.053245477,0.122189574,0.13270614,-0.03738557,-0.10326913,-0.0842537,0.14148049,0.030837761,0.04160204,0.028325759,-0.07483111,-0.092668794,0.11001256,-0.042342145,-0.062288422,0.10794895,-0.100743115,-0.03976232,0.029810615,-0.09411963,0.023419905,0.07902723,0.051198382,0.006277931,0.028771594,-0.014081647,0.018385952,0.11510124,0.078193374,-0.0608673,-0.023982605,0.057209533,0.11179217,-0.03726555,-0.044902056,0.0844613,0.00096504233,0.11117632,0.021957764,0.10365999,0.047472768,0.0019301547,-0.06675887,-0.059311546,0.025175862,0.099236995,0.07273662,-0.02950173,0.089785516,-0.009443356,0.11663132,-0.067361,-0.07241895,-0.0772483,0.06884926,-0.06279279,0.1002415,-0.06487185,-0.052899968,-0.04066578,-0.02175636,0.057354353,-0.025790393,-0.027206378},
		{0.043569617,-0.09161882,0.019632258,0.0834657,-0.10762606,0.085984595,0.0019446604,-0.030664269,0.015437525,0.084523454,-0.091462255,0.005694853,0.037529346,-0.012088078,0.052759636,0.05340156,-0.020399785,-0.07501723,-0.074876435,-0.09212472,-0.10684683,0.0670424,0.10054497,-0.0054257866,-0.058913924,0.0031433664,-0.075972416,-0.061599668,-0.03325762,0.012015716,-0.04604476,-0.055033,-0.050742943,0.107835345,-0.052849334,-0.024794808,0.04327289,0.0597976,0.04921313,-0.073194444,-0.05042273,-0.07641139,0.08647058,0.13482405,-0.11015541,0.09394083,0.057266645,-0.059224766,0.0216993,0.034535248,0.07064569,0.13029674,0.060304407,-0.09826731,0.07371887,0.012369232,0.096021265,0.048317418,0.022425493,-0.07418082,-0.0771874,-0.08589543,-0.028111609,0.033020057,0.09147707,0.09743925,-0.1134733,-0.054450102,0.06869423,-0.0758215,-0.054884028,-0.0070551243,-0.01710738,0.10987843,0.09792119,-0.016351318,-0.04866925,-0.008108649,-0.006747522,-0.076681845,-0.02402595,0.04725998,0.020294705,0.0032717674,-0.11930212,-0.064327985,-0.09464231,-0.030742338,0.034940127,-0.0158596,-0.054517485,-0.04292857,-0.07269019,-0.080806,-0.040901054,0.041310232,0.009212464,-0.10162524,-0.064020805,0.123157725,0.032648288,-0.010233501,0.004953984,-0.09719667,0.040873546,-0.10127209,0.10627923,0.08708325,0.069830716,0.031146023,0.077951506,0.02215122,0.0738135,-0.012086664,-0.021951243,0.06177484,-0.07680518,-0.080513,0.05545774,-0.02788911,0.07528496,-0.03781646,0.054541323,-0.062294267,0.09879437,0.09033975,0.047934096,-0.0026412366,-0.016872298,-0.10697962,0.06810468,0.010625161,-0.023427445,-0.045204602,-0.08007066,0.030684613,8.565342e-05,-0.1206871,0.071669295,0.11777428,0.025783775,-0.054806538,0.047211956,0.0292712,0.06339855,0.06230055,0.08414012,-0.041748106,0.026036378,0.01846365,-0.031355817,-0.064195536,0.035102777,0.009821413,-0.048994005,-0.018745603,-0.036916148,-0.014864127,-0.055133592,0.07090188,-0.0942054,-0.037906107,-0.06937554,-0.06779495,0.10243135,0.05943317,0.079942666,0.04864971,0.0112658385,0.11220636,-0.027927926,-0.10648325,0.09864158,-0.063249685,0.1025124,0.033079278,0.11402616,-0.019521287,0.076948136,0.050381925,0.089055404,-0.08003239,0.08369694,-0.06621207,0.04609955,0.069412366,-0.000621073,0.025020923,-0.06551233,0.061704896,-0.022443451,-0.020963868,0.090772025,-0.11540404,-0.02167917,0.03945719,0.091307394,0.073291644,0.04253296,0.09073088,0.041917674,-0.06712548,0.054287866,-0.135221,-0.13197814,0.1260289,0.077850826,0.032178324,0.059602942,0.0060725436,0.06922025,0.0018568422,0.14956398,0.03234785,0.049607776,-0.08731461,-0.061078653,-0.11211649,0.09365229,-0.043567553,-0.04342058,0.0042817704,-0.08395305,0.11616794,0.033739984,0.02319989,-0.017872918,0.07158728,-0.004729165,-0.058195848,0.0811499,0.055959426,-0.06413897,-0.108098015,-0.0433382,-0.006766846,0.017833138,0.0900018,-0.06340717,0.040373154,0.07746513,-0.03626867,-0.039982326,0.047168206,-0.08523033,-0.09977163,-0.040478963,-0.060716655,0.02053486,-0.04329095,-0.023012288,0.05529789,-0.092157856,0.014730331,0.079115994,-0.08439795,0.011710331,0.08992619,0.047363274,-0.074627675,0.047119237,-0.030861877,-0.034323625,-0.046081558,0.00343927,-0.004568503,0.017609652,0.0075637237,-0.084318355,-0.07802601,0.050234202,0.055094294,0.08174501,-0.07521682,-0.043056678,-0.033121653,0.0059673516,-0.10024592,0.0030156847,0.0434526,0.13536274,-0.044835545,0.04732076,0.10598742,0.036081847,0.05690366,0.019924143,-0.0748279,-0.045051623,0.03440116,-0.08543092,-0.054215215,0.11811205,-0.099021934,0.0061505693,-0.0031687957,0.021418773,-0.05607179,0.033658218,0.009334526,-0.08676162,0.048306797,0.011760039,-0.028958894,0.08142833,-0.06797292,-0.010662101,-0.09643225,0.010865171,0.008517147,0.0534941,-0.08312231,0.005626261,-0.094241604,0.04909216,0.04801012,0.048422452,-0.041845538,0.022714868,-0.06944863,-0.050683945,0.0006759746,0.069327116,0.02937974,-0.07365957,-0.026694512,0.02638231,-0.06827787,0.085408814,0.048434805,-0.059991166,0.021249607,-0.110456504,0.06389988,0.020153642,-0.038196746,0.0044329623,-0.10602777,-0.06473959,0.054445464,-0.041377496,0.036841176,-0.04498484,-0.06860178,0.072508655,0.13243644,-0.002279838,0.066990055,0.07761025,-0.0790038,0.087505005,0.08968096,-0.09645412,-0.05662699,-0.049560312,0.071159065,-0.0035542878,-0.023526419,-0.10466671,-0.046176795,0.09089207,0.051409252,0.12789056,0.05174292,0.022361225,0.03892685,0.07327444,-0.0809584,-0.08109519,0.02624294,-0.104868524,-0.02984299,0.11108865,0.08248396,0.03611014,0.041533925,-0.06786671,0.057022803,-0.057639156,-0.11944957,0.100926325,-0.09322526,-0.013853105,-0.03192509,-0.0077614607,-0.06642868,-0.03549335,0.08559416,0.043064732,0.106987976,-0.016900199,-0.08103435,-0.003772403,-0.024383446,0.030054037,-0.08762402,-0.06652125,0.086675,-0.0009925747,0.047299773},
		{-0.064688176,0.054938506,-0.013017686,0.025627738,-0.1007889,0.05851093,-0.002664656,0.0053809583,-0.068319514,-0.097396046,0.05268911,0.05241765,0.0510801,0.069288686,-0.031882696,0.012585874,-0.08145813,0.09698197,-0.044255633,-0.0153024085,0.07997818,0.05889722,-0.088409536,-0.03186015,-0.048075195,-0.026804266,0.05794596,0.15110123,0.013726408,0.05452775,0.0031507583,0.07620975,0.09369087,0.05353023,-0.004109126,0.022306874,0.054769956,-0.1315946,0.06659877,-0.09603895,0.0045152376,-0.09105843,0.035247102,-0.1464369,0.07335285,-0.0805936,0.16538684,-0.05878156,-0.10305881,-0.06268077,-0.01989338,-0.015881255,-0.0029048212,0.0259554,-0.109454125,-0.015085173,0.022096545,0.0839252,-0.10833994,0.009699095,-0.026344696,0.10752518,-0.05230903,-0.14615682,-0.08817448,-0.03495953,0.023251265,-0.060311954,0.099084236,0.07561286,0.022568474,-0.063391514,-0.07455134,0.09443786,0.057757232,0.072168656,0.088544,-0.057648893,0.051759765,0.0979984,0.09195581,0.009494286,0.10768822,-0.022871181,-0.123286575,0.0033219855,-0.10580306,-0.0751572,0.061656006,-0.03386026,-0.065966725,-0.04064505,-0.09741787,0.04398169,-0.03632996,0.05374523,0.049031634,-0.013477414,-0.04979357,0.09891408,-0.080456495,0.04231648,-0.04665482,-0.09395459,0.103069805,-0.03440111,-0.07224049,-0.02933978,0.034597486,-0.018944206,0.03598017,0.10311195,-0.017373994,0.07163168,0.1019814,0.040900256,0.06125785,0.03781099,0.08930495,0.065862074,-0.01226838,0.0737959,-0.02544942,-0.05883053,-0.081328474,-0.08105572,-0.07466287,-0.08254718,-0.13161968,-0.046784565,-0.023068063,0.11276492,0.032796193,-0.016878663,0.02258194,-0.032470644,-0.050167367,0.009037123,-0.020361235,0.10080217,-0.07195358,0.010468382,0.033150565,-0.09260308,-0.07456102,0.07509896,-0.02684095,-0.024023388,-0.002228925,0.048394572,0.03390509,-0.102505215,-0.061696835,0.059625167,-0.049194403,-0.042895954,0.10717429,0.13580616,-0.004415215,0.09660585,0.1197234,-0.023673099,0.06272849,0.017535508,0.03242855,-0.048236325,-0.12523095,0.041200638,0.14569712,0.030142102,0.07631363,-0.0037050718,-0.0053565353,0.05986066,-0.047681957,-0.013040561,-0.085769005,0.06670307,-0.041450776,0.08132547,-0.040415555,0.035560086,-0.052641954,-0.0066932305,0.10271849,0.08492112,-0.062793404,0.033916272,-0.019018194,0.030797444,0.024503747,-0.10456418,-0.047663398,-0.055467915,0.06706381,0.037003957,-0.006941742,0.07281592,0.019414948,0.1003869,-0.031607226,-0.06923726,-0.06028123,-0.10044881,0.016671887,0.058653697,0.026398607,-0.042562384,-0.088454865,0.11089148,0.13777027,0.1344165,0.014798171,0.03388227,-0.057185896,-0.03377871,0.06387351,-0.013437662,0.038660724,0.021664675,-0.16867174,-0.022557538,0.119233936,-0.041378655,0.013731239,0.026609762,0.06781155,-0.090099886,0.036593802,-0.079782285,-0.10453919,-0.082801096,-0.0037708187,-0.062334552,0.08199478,-0.05093804,0.018938242,-0.056203824,0.10740476,-0.073958956,-0.00023720908,0.02870708,-0.06938609,0.06587827,0.028608223,0.09162447,0.082058474,0.029104935,-0.06734062,0.039577454,-0.07701576,-0.10567651,-0.023489755,0.096585065,-0.04928305,-0.026329936,0.060792767,-0.071240775,0.032473918,-0.08999128,-0.030550027,-0.08925249,-0.023525534,-0.06841372,-0.09851713,0.05933914,0.026441853,-0.05023892,0.04353951,0.08781929,0.040116336,-0.013556205,0.048815478,0.08217319,-0.09007541,-0.05244484,-0.03636894,0.0033283804,-0.022470543,-0.06416261,-0.11977908,0.13876174,-0.07644581,-0.11427235,-0.045131475,-0.11378832,0.11523626,-0.13518539,-0.025544377,0.003926368,0.070346475,0.0405754,-0.069508865,0.04056877,-0.067851864,-0.09468885,-0.08215247,-0.09210691,0.026929947,-0.10287154,-0.04486642,-0.04183597,0.083984286,0.022321086,0.061346922,0.030013882,-0.026165403,-0.094469875,0.08002296,-0.059475027,-0.08155173,-0.026172709,0.012010078,-0.07894475,-0.10219713,-0.054828383,-4.43062e-05,-0.044569433,-0.08793032,-0.007902588,0.059099287,-0.031325344,-0.026936729,0.061411656,-0.09511664,-0.12206605,0.002108313,0.11306554,0.04598697,0.01930188,0.031681094,-0.06948277,0.05285305,0.054036066,-0.076525,0.1428699,-0.057701953,0.042081468,-0.074280895,0.021569623,-0.013361217,0.054390695,-0.022075538,-0.028954595,0.0357827,-0.02310704,-0.10053315,0.12688735,0.10254123,-0.0028530103,0.080891594,-0.11252506,-0.078355886,-0.0032884334,0.0036106794,0.023307953,-0.04344832,-0.051939283,0.018389558,0.033119097,0.014112557,0.0025949958,0.028813733,0.022628628,0.008560811,-0.005489859,0.0018652363,0.119556874,0.13479015,0.08454116,0.038812608,0.05948102,0.069738016,0.068732195,-0.018423354,0.11999715,-0.057017855,-0.05313517,-0.11863153,-0.0830403,-0.020230485,0.027476614,0.081440166,0.07128216,0.019604629,0.021880213,0.16330624,-0.07571699,0.022703646,-0.026281586,0.043317035,-0.099743135,-0.05969298,0.0016870082,0.01771137,-0.0058612186,-0.023504548,0.011335141,-0.10474497,0.042594574},
		{0.08113177,0.10915716,0.09628476,-0.01732627,0.0516641,-0.107487485,0.08901531,0.02158602,0.1573032,-0.070869885,-0.11043471,-0.09368755,0.01389023,0.12819193,-0.062846646,0.063883506,0.01754992,0.08637348,0.02952671,0.09921326,-0.07479105,0.071561664,0.06999822,-0.09925985,-0.10084523,-0.04789196,0.07548269,-0.12481522,0.048617348,0.017175285,0.0044158096,0.00568098,-0.0007821967,-0.09737212,0.12573461,-0.110202916,0.06996921,0.015998533,-0.02385345,-0.08886777,-0.04097605,0.08041573,-0.094015546,-0.0712393,0.0838377,0.079539195,-0.044553075,-0.08462419,-0.0261353,0.05616546,-0.060482156,0.035297878,-0.052941505,0.0024470417,-0.1252009,-0.027401723,-0.04053135,-0.052758805,-0.16204527,0.08329855,-0.027881784,0.14787053,-0.02828989,-0.01982754,-0.006448622,0.018741459,0.014079397,0.06824595,-0.00402237,-0.03816039,-0.04482053,0.04721717,-0.08740124,0.025472669,-0.017062007,0.05263374,-0.041378543,0.06671455,0.019723203,-0.059791956,0.10313829,0.03416548,0.13076136,0.105971836,-0.0055910484,0.07012995,-0.038000986,0.123004936,0.067299925,-0.086523786,0.10562956,-0.06699744,-0.025295,0.053297028,0.08525438,0.10511417,-0.030402392,-0.008408401,-0.018532053,-0.07640874,0.017902592,-0.03026512,0.08687886,-0.08833499,0.08949144,0.094729275,-0.038231328,-0.038534418,-0.057979688,-0.06199254,-0.060253374,0.0752473,-0.075310364,0.0002011087,0.061297596,-0.041876093,-0.09037117,-0.017474739,0.058184244,-0.06910994,-0.09215226,-0.019533403,-0.0018239786,0.08164822,-0.09631577,-0.07359153,0.14002782,0.028103514,0.08104691,-0.059085425,0.09387457,-0.031262983,0.06300725,-0.056946084,-0.018429207,0.041445088,-0.06025591,0.08778498,-0.08145004,0.02952469,-0.120495,0.027496262,-0.0584049,-0.10407361,-0.047614247,0.01060566,0.006021629,0.11129476,0.030252893,-0.048608456,-0.046728782,0.031061687,-0.10039155,0.05744059,-0.08219561,0.056193553,0.1029868,-0.04629566,0.05399372,-0.060057305,-0.037894707,0.01889976,-0.061559938,-0.009329857,0.10990037,-0.071300216,-0.06321323,-0.0017231702,-0.08788196,0.06556531,-0.014678036,-0.041165236,-0.10463911,-0.053950746,-0.06118488,0.05042581,-0.03427624,0.11314546,0.10531421,-0.054903977,0.02605551,0.07688121,-0.028656818,0.02406763,0.020925762,-0.10572464,0.07858459,-0.005377507,-0.02730907,-0.0121604195,-0.06351024,0.08897884,0.08437788,0.005252799,-0.03650613,-0.081319444,0.057033084,0.021478964,-0.1372906,-0.061765846,-0.052139636,-0.12017253,0.066752724,-0.13937318,-0.08103389,0.044450965,0.092622355,-0.03474684,-0.034211453,0.0033136925,0.049818423,-0.009033483,0.053341202,-0.014458168,-0.024826935,-0.08617019,-0.10560669,-0.082734495,-0.021669094,-0.008791338,-0.05260748,0.15594615,0.058570623,-0.09441346,-0.020673431,-0.012511948,-0.047528233,-0.13817005,-0.00047087934,-0.0034688301,0.068721145,-0.12232891,0.055092048,0.11442187,0.06006311,0.043695044,-0.095547505,-0.0037378997,0.035343595,0.06518106,-0.06920291,-0.07383904,-0.09407523,0.07312968,-0.08807061,0.011402711,0.0048823045,-0.029252464,-0.08237402,0.047300197,0.10018092,-0.011655885,-0.051981743,0.07037543,0.0009658596,-0.014631199,0.080811866,0.10904489,0.100113004,0.07219795,-0.043334637,0.09310977,-0.02362963,0.07142611,0.044421624,0.056289643,0.07939884,-0.021872785,0.04026275,0.04022217,0.019930363,0.016376158,0.030166721,-0.018035045,-0.070910744,-0.10007865,0.037123203,-0.0053594066,-0.069282785,0.06883732,0.13832435,-0.06728062,-0.08495142,0.020070737,0.081629716,-0.014640934,-0.022557776,0.05906158,0.10517911,0.0965622,-0.01809837,-0.035928685,-0.015584167,-0.083964154,0.09234786,-0.0767134,0.087921195,-0.08922434,-0.052159697,-0.052791324,-0.086235076,0.0134966755,-0.032030337,0.042593833,-0.03673671,-0.0052857036,0.025425056,0.0017683939,-0.024140146,-0.01903213,0.01992004,0.07339746,0.013667483,-0.07824114,-0.040341023,0.09480661,0.1466354,0.095591605,0.07583715,-0.11061834,0.006687998,0.0016850127,0.02486259,-0.047318842,-0.073272586,0.04407117,-0.089544855,-0.06823352,-0.14866203,0.03683914,0.049240153,-0.03295379,-0.021219254,-0.1287946,-0.120270565,-0.07391354,0.13405047,-0.072848395,0.05209857,-0.11026321,0.021101747,0.0048017777,0.04205672,0.048814423,-0.062438224,0.012645841,0.014268221,0.030522048,0.043836858,-0.023525871,0.012694757,-0.07913474,-0.08546123,0.034378264,-0.093228556,-0.08420524,0.04538825,-0.001973758,-0.008035302,-0.1405207,0.061695892,-0.003609435,0.06859057,-0.04699821,0.04646146,-0.10021501,0.019728387,0.13262145,-0.03265532,-0.011235224,-0.0043100896,0.033223614,0.036801822,-0.05376795,0.022980386,0.0180758,0.062275067,-0.009935391,-0.034786105,-0.1234743,0.005987059,0.089264736,0.04778862,-0.012562198,-0.0016123136,-0.00060864823,-0.040861893,0.088740826,0.12867787,0.083722614,-0.10427606,0.0075877346,-0.12683654,-0.10484056,0.011606238,0.027713494,0.032726597,-0.0384496,0.033074033,-0.08089658},
		{-0.09416756,0.07590693,-0.058495298,0.023484929,-0.029528305,-0.042579275,0.05663484,0.04861673,0.06549093,-0.046282355,0.09567779,-0.02312903,0.021207722,-0.053297266,-0.08262595,0.05135385,0.09601299,0.06897539,-0.049997475,0.0767108,-0.043886017,0.014801631,-0.03223905,-0.021563312,0.010552723,-0.04836194,0.05597084,0.0018157993,-0.010171365,0.09819135,0.032430425,-0.029204346,0.017508008,-0.031361546,-0.098010235,0.07281661,-0.020136088,-0.041301694,-0.07119083,0.046202008,-0.04699099,-0.07864173,0.082157634,-0.06659933,-0.06547547,-0.07548135,0.09799462,-0.041848436,-0.07827357,0.035865434,0.07342792,-0.100111976,-0.0027261653,-0.023635648,-0.065996826,0.09342963,0.08644076,-0.061470807,-0.09794303,-0.08787695,-0.105481654,0.075170666,0.0523558,0.092907526,0.0720047,0.010688751,0.08861651,-0.061586842,0.09465261,0.008647482,-0.020029394,-0.07695425,-0.10202045,0.004864852,0.05912276,0.09471249,-0.034277435,-0.014558755,0.077798925,-0.06558233,-0.03671595,-0.08903495,0.047133766,-0.020961758,0.07100246,-0.052121244,0.10439831,-0.10498001,0.032372493,-0.10681773,-0.0013819939,-0.08981639,-0.069637075,-0.015132846,-0.0728559,-0.0073803235,-0.038098928,0.092746206,0.033584643,-0.097611286,-0.09952604,-0.00495367,-0.054795437,0.094542146,-0.073767394,-0.0819248,0.07069803,-0.10302742,-0.061810598,-0.024977185,-0.048758004,0.0009838796,-0.07988335,0.021305442,-0.099113636,-0.043047313,0.09252167,-0.042585477,0.052097037,0.026736243,-0.0795515,0.082069665,0.0903045,-0.045530513,-0.021094033,-0.073843464,-0.09110181,-0.0010526077,-0.04207684,0.045614317,0.018554488,-0.064620174,0.07593248,0.0605938,-0.001101411,-0.011524649,0.092990614,-0.053600717,0.028325276,-0.06346948,-0.067726195,-0.04176693,0.03603291,-0.04432406,0.07830681,-0.03736388,0.10303464,-0.03542586,-0.07352826,0.035135113,-0.0012664046,-0.09918655,-0.0052613937,0.018506024,-0.04650356,-0.05538234,0.017088387,-0.09891178,0.08642206,-0.010907263,-0.03155927,-0.016186126,-0.03542088,0.09968193,0.045169074,-0.03522509,0.062290102,0.034186367,0.10042328,-0.074898824,0.030291256,0.0057208138,0.023374874,0.016211303,0.048321024,-0.00793807,0.08444336,-0.101928994,0.104753226,-0.07773985,0.023196366,0.059374463,-0.03201276,0.09987985,0.012882257,-0.0631202,-0.015902996,-0.036275677,-0.035152227,-0.045503784,-0.08023806,0.0058237235,0.009599992,0.028180217,-0.039892256,0.049494006,-0.038952205,-0.08039154,-0.029655742,7.892187e-05,-0.105165504,-0.06566205,0.03828509,-0.028922284,0.086170174,0.046504185,0.035774615,-0.009978179,-0.07179746,-0.06018377,-0.017517561,-0.01460005,-0.088307925,-0.09295371,0.047227163,-0.053440075,0.023431407,-0.10723801,-0.06409111,0.038561445,-0.035038587,-0.046964426,0.050472427,-0.011710267,0.101407334,-0.02215494,-0.04202525,0.021467024,-0.01936478,-0.045329988,-0.0036033576,0.025576921,0.088132694,0.06132729,0.010557864,0.048558265,0.08275616,0.02081692,-0.08221005,0.020731067,-0.054686885,-0.013454699,-0.057750884,-0.03496347,-0.027975723,-0.002009905,-0.107519105,-0.0040380927,-0.009976833,-0.08872926,0.08272343,-0.04883462,-0.043099087,-0.012500182,-0.0046489886,0.026854645,0.006647327,0.03120417,-0.0005258545,-0.105958685,-0.07126407,-0.02800424,0.04085448,-0.103559166,0.072950974,0.044097107,-0.04163961,0.09728855,-0.04051987,0.09849154,0.04183384,-0.042586908,-0.0872651,0.015961936,-0.09367184,-0.09637372,-0.0168442,0.028590152,0.0057979766,-0.09302171,-0.075802706,-0.08068256,-0.08928644,-0.084995754,-0.04583679,0.042874884,-0.023919953,-0.04654533,-0.059423175,-0.051897004,-0.05386211,0.049206812,0.07682949,-0.027027374,0.041848417,0.054436482,0.07279686,-0.051376358,0.09817721,-0.08050987,0.08961325,-0.09296258,-0.07290729,-0.08668312,0.045769975,-0.027013315,0.027519956,0.08047097,-0.045740068,0.014630825,0.077265106,0.057784,0.07993998,-0.033578154,-0.025253782,0.091822706,-0.021743136,-0.010315157,-0.07259335,-0.037792437,-0.04041277,-0.06153242,0.04126547,0.0793045,0.058545496,-0.053135876,-0.09203339,0.045154378,0.048746444,-0.018227236,0.08804559,-0.023442484,0.015916256,0.021421991,0.047521707,-0.09735151,0.07392636,-0.021686021,-0.027208894,-0.02011533,-0.09444701,-0.10286834,-0.074302204,0.10550511,0.024730066,-0.0019924417,-0.03682692,-0.09696213,0.1058451,0.034122672,0.09871163,0.053814515,-0.0396836,0.10293117,0.043787446,0.085430294,0.040969703,-0.02852246,-0.06516619,0.087266326,-0.07772252,0.033882167,0.0074007316,-0.088124186,-0.07323066,-0.04124016,0.04844991,-0.09141518,0.04136222,-0.10030221,0.0044210907,0.091636114,0.05108172,-0.050857373,0.058693115,-0.090985276,-0.11054712,-0.07362475,0.064835854,-0.074164614,-0.07974412,-0.039106693,0.09929417,-0.015842611,0.075299956,-0.04183619,0.07522957,0.033127118,0.011282737,0.0048941453,-0.103370324,0.068854034,-0.105012715,0.10448033,-0.01609465,0.013315099,-0.0135955075,0.007527724,-0.09479687,-0.04845943},
		{-0.035036005,0.11676995,0.123342484,0.09690767,0.023167416,-0.07869723,-0.07251665,0.06924001,0.057404876,-0.039045487,0.04984141,-0.12223513,-0.067242585,0.020340135,-0.07551185,-0.1116952,-0.08255631,-0.09511813,0.10029192,0.004622129,-0.03032837,0.0062639294,0.010434127,-0.002839395,0.064681396,-0.053182945,0.03003931,0.135486,0.057423297,-0.0940837,0.017228365,-0.09424086,-0.16118252,-0.115211286,-0.03604157,-0.011019952,-0.064235955,0.03980579,-0.045668285,0.030042537,0.008965235,-0.05805023,-0.07134447,-0.012454295,-0.01668276,-0.0358375,0.09262759,0.048980955,0.002595631,-0.07211272,0.08835138,-0.058323048,-0.020578668,0.013756649,0.10146465,0.08850285,-0.054777198,-0.032731045,0.104296856,-0.06049463,0.022448536,-0.07574101,-0.042279247,0.011946049,-0.102092296,0.07397037,-0.034078795,0.090809725,-0.020537581,-0.07665078,-0.05602976,0.06267817,0.04045673,-0.019788405,-0.024237068,0.0044277334,-0.004247163,0.12205018,0.07457973,0.087522395,-0.07807162,0.055136334,0.106400214,-0.11335476,-0.07701137,0.034571424,-0.09493209,-0.037534613,0.04886668,-0.009827882,-0.021172697,-0.040818594,0.017903006,0.072926305,-0.025225887,-0.0066948486,0.04887477,0.049908802,0.030216537,0.0727609,-0.12687813,-0.08007471,-0.07153727,-0.016919164,-0.0739764,0.013231827,0.024231149,-0.041250147,0.07747829,0.09091825,0.009070505,-0.011945546,-0.09097745,0.08839255,-0.027290797,-0.09649675,-0.063121475,-9.341019e-05,0.072530106,0.026510451,0.008717437,0.029849414,0.103678964,-0.036706652,0.03254027,0.08898645,0.0961919,0.03204414,0.054176826,-0.017915942,0.025381675,-0.068174876,0.039042983,0.06832603,-0.078681506,0.040587388,-0.13152714,0.014935676,0.104084924,-0.10301057,0.09225249,-0.009836688,-0.0032760152,-0.074181,0.09609716,0.09483068,-0.003485998,0.057711985,-0.11296462,0.008040211,-0.04850891,0.09555447,0.005343073,-0.07685809,-0.033987965,-0.077770524,-0.027385753,-0.05048055,-0.028120518,-0.08011312,0.05246782,-0.09833638,0.07716263,0.022808954,-0.044473514,0.041942917,-0.061151937,0.0059439735,-0.039242584,-0.016906625,0.06700614,0.07506682,0.059482362,0.039897848,0.0071974066,-0.10607847,-0.009776546,0.06977867,0.0025886965,0.084044136,-0.095919505,0.10184097,-0.003626353,0.028549049,-0.043271378,-0.0153367305,0.11729368,-0.15635179,-0.13186602,0.0178311,-0.0480695,-0.046282906,-0.01991759,0.038921546,0.020275451,-0.057683893,0.05599649,0.02441699,-0.101614885,-0.09894312,-0.05971796,-0.011890117,-0.09027219,0.15198183,-0.045294315,-0.1692231,0.028083442,0.0019682683,-0.07336356,0.035013605,0.0041467636,0.027777739,-0.10053424,-0.0034970597,-0.094474174,-0.031651918,-0.05790437,0.0706481,-0.019840142,-0.06366032,-0.00767451,-0.0484229,-0.01652322,-0.022512034,0.05887829,0.0933365,-0.013075307,0.014342386,-0.06336075,-0.08981312,-0.039233427,-0.020968853,-0.0353103,0.055957843,0.11300385,0.0502951,-0.0033066578,0.006543981,-0.03359769,-0.07621833,-0.07542779,-0.059656005,0.14181149,0.10973037,-0.011704888,-0.017158654,0.01618659,-0.024438903,0.037159942,0.009928375,-0.03908792,0.062186193,0.09067477,-0.090944685,-0.09762961,0.08537489,-0.013747465,0.08489065,0.07885789,-0.040555324,-0.07715538,-0.06431023,-0.10700617,-0.085105285,0.022135125,0.074218675,-0.06763484,-0.033905584,-0.1025865,-0.016932251,0.03040126,0.0001577382,0.030961443,-0.06522782,0.00058360863,-0.017862173,0.094483025,-0.060404677,0.067838095,-0.08218899,-0.08210118,-0.050977804,-0.048650578,-0.016034234,0.055969205,-0.08498511,0.026684776,-0.036042985,-0.057755273,-0.012563102,0.0038749836,-0.030585986,-0.100984424,0.007830659,-0.105414934,0.08647917,0.046671905,-0.027938344,-0.063574165,-0.029950682,-0.019347118,0.08922206,-0.022661183,0.0020277414,-0.060653854,0.08060099,0.00089392095,0.063772246,-0.074876,-0.058457766,0.01575733,0.06065016,-0.1497875,-0.0051694014,0.09581185,0.057288013,0.045548655,-0.016992772,-0.041971676,-0.10261497,-0.014559203,-0.011704338,-0.025977908,0.074477755,0.028238814,0.036807653,0.017429177,-0.061886054,0.01006431,-0.030857876,-0.10759181,0.049980856,0.12748997,0.15784132,0.053398035,0.066305846,0.122756384,0.1305312,-0.05596657,0.073341064,0.06584706,0.07243559,0.021495748,0.010946772,0.043059587,-0.004992702,-0.039998952,-0.040751863,-0.09128833,-0.06938967,-0.015447164,-0.04018305,0.0012524058,0.12435604,0.13296258,-0.096801646,-0.06463175,0.052386973,0.051049624,0.028045362,-0.021560896,-0.009797079,0.050359085,0.04639043,-0.07705561,-0.09376942,0.034741703,-0.023487234,0.08379704,-0.056418866,-0.027495466,-0.06452932,0.09935102,-0.10390876,-0.0939097,0.10413801,-0.08750731,-0.02080509,0.14766487,-0.09844193,-0.0024200515,0.012164576,-0.060322095,0.077225246,0.0018981929,0.041889224,0.10907645,0.077342235,0.069299154,-0.0326361,0.08284071,-0.105229385,-0.008571362,-0.07530774,-0.022342425,0.043479,-0.11712295,-0.04918682,-0.045200698,0.056641944},
		{0.09551792,0.062107295,0.12615539,-0.045747474,-0.07788414,0.046224125,-0.028096339,0.09390634,0.02357006,-0.07087278,0.066202685,0.069501586,-0.029305551,-0.038264163,-0.113003366,-0.09384827,-0.091143385,0.009516566,0.103509896,-0.011695641,-0.045071717,-0.055636827,-0.11017068,0.072662614,0.09102183,-0.05316691,-0.11141254,-0.0081262225,-0.028527964,-0.058750346,-0.062395472,0.028687932,0.02735773,0.038064275,-0.08297645,0.03369873,-0.005938622,-0.042238362,-0.012881586,0.10321083,0.06471625,0.059945513,0.010999529,0.047329333,0.08638103,0.10715135,0.09024502,-0.00089927117,-0.037420794,0.03873811,-0.06470672,0.048409224,-0.032221902,-0.13963015,0.05537571,0.07169612,-0.03672103,-0.03209668,-0.045875233,-0.093884535,0.036137767,0.0037469885,0.0833901,0.08512139,0.055730905,0.015799971,-0.13610189,0.09332659,-0.021636482,-0.030963484,-0.062154144,-0.017804435,-0.07836526,0.016958335,-0.05042021,0.040379427,0.05316291,-0.06678853,-0.049396284,0.036418237,0.038903568,-0.020478053,-0.0067776493,-0.041554514,0.030668085,-0.090426095,-0.12798439,-0.08132592,0.0025009476,0.0872401,-0.022268033,0.03198534,-0.0888556,-0.10915803,0.09402596,-0.05965954,-0.1065361,-0.08006563,0.08594096,-0.069344714,-0.032916967,-0.096706055,-0.010389253,-0.045668844,-0.095857546,-0.014191051,-0.067467526,-0.044509623,0.0009091634,0.092906475,-0.10219791,0.038826864,-0.07875659,-0.07802685,0.104219794,-0.04967343,0.10118832,-0.011662205,-0.073288694,-0.047146477,0.02607497,-0.013484657,-0.057835117,0.010666439,0.09703077,-0.035230063,0.11976956,-0.07859764,-0.058928035,0.0035698805,0.059638534,0.117568985,0.06999574,-0.031092573,-0.04632182,-0.058581494,0.047021493,0.027848162,-0.060062397,-0.11007625,-0.068439044,-0.001264339,0.0318059,-0.07153295,-0.08892054,0.0733771,0.0208063,-0.06389639,0.044430856,0.105686344,0.08390834,0.022138417,0.08915061,0.065931745,-0.08037848,0.108738124,0.06315504,-0.0147453025,0.037514526,0.0015836874,-0.07809492,-0.07605987,0.05984818,0.034997076,0.011800852,0.037938926,0.011105325,-0.051699057,0.047957264,-0.03468379,0.12187869,0.033169866,0.007051656,-0.059020124,0.037024427,0.03629918,-0.008863775,0.012489808,-0.021918444,0.04517968,-0.061010983,0.025572563,-0.046424624,0.023796793,0.096702866,0.13636342,0.041310582,0.07490949,0.096631065,-0.077885404,0.017751435,-0.06051714,-0.009937702,-0.006059477,-0.044266254,0.054752856,-0.06807835,-0.006505557,-0.06541417,-0.08591968,-0.08494635,-0.078638,-0.017392099,0.068727076,0.06403341,0.11533784,-0.09629493,0.05522449,-0.051494546,0.086652115,0.053683404,0.071945086,0.02748242,0.14645521,0.0778711,0.10897121,-0.106999405,0.052109525,0.083537504,0.12700811,0.07850597,-0.011514176,-0.058318064,-0.03745064,-0.04420365,-0.074521296,0.07180369,-0.12652157,-0.050503142,0.09003028,0.07995106,-0.035133228,0.0054397145,-0.0036475882,-0.07581171,0.07870994,-0.072184,-0.016201781,-0.03918547,0.02234049,-0.02389775,-0.069959,0.016505294,0.09444516,-0.041899655,0.042933606,0.029055383,-0.06691387,0.034301516,-0.05484914,0.1047547,-0.09802443,0.0067871404,-0.08454134,-0.0059439004,0.03712436,0.07130391,0.0014434347,-0.019426567,-0.024853466,-0.011836775,0.012985275,0.09749341,-0.037961822,0.08168295,-0.082548454,0.040572684,-0.052611537,-0.020449057,-0.09605674,-0.0069488324,0.02688413,0.09679784,-0.09654628,0.020073444,0.029710812,0.059322014,-0.06602467,0.05372743,0.052977197,-0.0447858,-0.035895795,0.10113509,-0.0015559028,0.072641864,-0.009421022,0.08455328,0.0984325,0.079516664,-0.060042236,-0.02246066,0.031217111,0.119635694,-0.10920252,0.015857724,0.018040378,-0.05305862,-0.03750575,0.07445421,0.09780431,0.08831903,-0.08240973,0.038173944,-0.040720105,0.00015516608,-0.03936756,-0.027802017,-0.083671734,0.01482596,-0.09067748,0.15150605,-0.011787243,-0.02576917,-0.009140962,0.015976481,-0.054876305,-0.09683206,-0.06571025,0.026150452,-0.08427645,-0.07882348,-0.07804142,0.014385804,0.034783494,0.10172122,-0.053179905,0.0074942247,-0.08452878,-0.08603803,-0.0035285426,0.069981016,-0.03382153,-0.10845891,0.03398377,0.06755314,-0.06082651,-0.085529946,-0.06764898,0.09143166,-0.045455955,0.073070094,0.013390395,-0.021748401,0.08882699,-0.030568488,0.0051328894,0.11432033,0.0727146,-0.012831714,-0.09470721,-0.057476167,-0.081700295,0.08092689,0.08327669,-0.1261704,-0.042623207,0.012804744,0.092978545,-0.09023152,0.020639524,0.03922795,0.05543567,0.083168864,-0.055217445,0.09856493,-0.07988347,0.020145334,-0.029435698,-0.08054984,0.09449706,-0.043784697,0.07496199,0.03526742,0.027401045,0.06263784,-0.046129994,0.0727371,-0.014572891,-0.013205727,0.043967128,0.13464284,0.08783411,0.089507334,0.04112652,0.034116827,0.018398235,0.007731539,-0.0111200735,0.015902825,0.07132588,0.036684174,-0.06088523,-0.14407343,0.10189631,0.055240057,0.090846315,-0.026103556,-0.0955398,0.098002985,0.05903406},
		{0.045018706,-0.0042277263,-0.04806725,0.030269386,-0.047070332,-0.07226105,0.058155518,0.0015941748,-0.061137203,-0.086713314,0.11341387,0.07532482,0.07410107,-0.052172497,0.093065515,-0.043227628,0.1661456,0.06258084,0.04350463,0.004685282,0.016277432,-0.033748977,-0.047976017,-0.055792112,-0.07367303,0.026161416,0.088275984,-0.06934711,0.013799097,0.021143157,-0.0076614395,0.052127916,0.031194182,-0.1372583,0.041155662,0.06322887,0.099075556,0.034571983,-0.041702103,-0.064877845,0.109371334,-0.05358436,0.045890875,-0.027790634,0.049885646,-0.005578334,0.06547626,0.079612665,0.047623232,0.031705532,-0.0467831,0.082004204,-0.046706695,0.050619997,0.07724316,-0.08864604,-0.08394028,-0.081313804,-0.06406562,0.010055046,-0.09815269,0.055674475,0.04997465,-0.10312434,-0.085551865,-0.07599944,0.021886248,0.044075534,0.082130395,-0.039912015,-0.0648341,-0.07919417,-0.069558546,-0.0027547441,0.12924494,-0.06502213,-0.1136187,-0.092871726,0.028958574,-0.082701124,0.016489903,0.07573961,0.08168246,-0.039199773,0.037563775,0.067488775,-0.062546395,-0.09359465,0.039588932,-0.06647003,-0.0768604,-0.07174064,-0.0051064463,-0.010997915,0.12380537,-0.055053066,0.028345035,0.030026674,0.13399212,0.070766166,0.0023946231,-0.07635088,-0.058886178,-0.04990932,0.052135628,-0.06845832,-0.051540706,0.03225338,0.010076202,0.03299213,-0.0049276087,0.03686052,0.104668684,0.049607832,-0.051747847,-0.09626479,-0.09569037,0.048574086,-0.050367557,-0.051286016,0.076510735,-0.079999976,0.061263245,0.070589416,-0.0032953524,0.025433382,0.0139168985,-0.052629493,0.028997626,-0.07899217,-0.07698332,0.053194936,-0.0076522683,-0.0938613,-0.084329024,0.017045507,-0.007022454,-0.05643288,-0.13410361,0.057806876,-0.06831208,-0.021884093,-0.09921038,-0.0718813,0.03418973,0.08383805,-0.0166763,0.017001184,-0.11173086,-0.035148263,-0.03695672,0.08659668,0.083922595,0.020749802,0.060643975,0.07777582,0.042310692,0.15324871,0.116946846,-0.049558494,0.008321796,-0.021710726,0.14472622,0.114542,-0.04882114,0.0913873,0.0511753,-0.05493571,0.04762375,-0.022179049,-0.07431609,0.023820885,-0.093673855,-0.059964877,0.011314483,0.039967168,0.065712996,-0.014706764,0.11097057,0.12394465,-0.111317344,-0.1008982,0.026464265,0.103540465,-0.03644509,0.0372629,0.00197117,-0.10334234,-0.11039414,-0.07132074,-0.011842867,-0.0053056753,0.021503102,0.048932683,-0.053159446,0.069235295,-0.0035819735,-0.052293956,-0.09091677,0.010689704,-0.08386472,0.053644236,0.0064745694,-0.029453548,0.118012115,0.08273426,-0.047497425,0.041303232,0.10210531,-0.06712373,-0.060334276,-0.043317623,0.16695839,0.11400111,-0.099718295,0.042731807,0.06123479,0.065171294,0.04179084,0.08172573,0.10752715,-0.07276895,-0.04925627,-0.047766283,-0.023931611,0.059646588,0.008920416,0.009732108,0.0022646948,-0.08418138,0.070700854,0.048636686,-0.059161052,-0.018699316,0.093180604,0.121363156,-0.077510014,0.14072283,-0.020755833,0.0016747486,0.010067744,-0.04644287,-0.029951317,0.060235362,0.03460331,0.00286634,-0.06790084,-0.042428434,-0.01997806,-0.058750577,0.05114671,0.07137162,0.0031783388,-0.10344088,-0.07949498,-0.106377214,-0.10274172,0.04647629,0.031050412,0.04080167,0.017077118,-0.008628288,-0.07911772,0.04242851,-0.09359966,-0.057820994,-0.022182822,0.033577595,0.043633934,0.046792395,0.06868913,-0.059234813,0.09111928,-0.008144865,-0.055254404,0.011827408,-0.02859293,0.06950675,0.09532571,0.04456929,0.105989255,-0.08511723,-0.036743745,-0.06330491,-0.095543295,0.012548338,-0.07359162,-0.110906236,-0.06344841,-0.0032490888,-0.0246577,-0.083452515,-0.027992751,0.08684678,-0.11068138,0.057730753,0.06615501,-0.0787027,0.0270331,-0.03608506,0.047553357,0.011577696,0.028138742,0.055472635,0.044926364,0.031107433,0.009131415,0.11225556,-0.02354603,0.0029242714,-0.06676037,0.099478684,-0.05725699,0.13923083,-0.091932036,-0.008497307,0.0698842,0.029621731,-0.055250734,-0.084442146,0.059068162,-0.03716204,-0.019188618,-0.07959281,0.09514358,-0.04155244,0.03199755,-0.007449282,-0.043121446,0.095220245,0.0940643,-0.07677164,0.0075045237,-0.1129099,0.014430308,-0.06564531,0.010048308,0.015254939,0.0657737,-5.7527483e-05,-0.017659301,0.0071423706,-0.044071596,-0.13388665,-0.099571355,0.031526577,0.023799535,0.02466134,0.07607197,0.031036466,0.059984405,0.12640746,0.07052681,0.06744444,0.03973244,-0.07272603,-0.027954757,-0.038118023,-0.05697967,0.15475935,0.008591125,-0.059690792,0.09334305,0.17971331,0.058768004,-0.08263295,-0.0699563,0.008879946,0.11903901,-0.0329728,-0.061247434,0.08295328,0.03181047,-0.07212805,0.021044534,0.10392907,-0.05216128,0.05104002,-0.09264702,-0.05696023,-0.09937188,0.040809996,-0.035566453,-0.033811092,0.09737745,0.040110514,-0.022707948,-0.037728123,0.08422111,0.07443483,-0.0002801325,0.0008132283,-0.1291572,-0.08326604,-0.009316482,0.06099978,-0.0986336,0.06452752,0.0060217436,0.0025693437},
		{-0.09450239,-0.06408211,-0.08291076,0.007704355,-0.0012831001,-0.05265911,0.048474874,0.07198101,-0.066806726,-0.035482157,0.080089025,0.022966916,0.0898938,-0.06347969,0.067100994,0.05547851,-0.098357975,0.08797018,-0.053903688,-0.020005208,-0.08370262,-0.011635556,0.007171903,-0.088292494,0.037596542,-0.0753337,0.08501552,0.071251206,-0.038506392,0.04511042,-0.008995731,-0.083239324,-0.1048282,-0.011707793,0.06755427,-0.007290171,0.008588868,0.087767735,0.08614049,0.092906214,0.07386711,0.07791017,-0.00031722785,0.08763954,-0.029473644,0.08770966,0.10013362,-0.094627924,-0.08546799,-0.036691725,0.0148481885,-0.059906397,0.095704384,0.03994166,0.017901892,0.0047934856,0.003766978,0.008301315,0.10402665,-0.0045043295,0.014235556,-0.0010868025,-0.020216232,-0.038518738,-0.030316625,-0.058819573,-0.028071178,0.098416105,-0.016451875,0.0779167,-0.027624039,0.00017081214,0.047370255,-0.042720247,-0.070326515,0.021194752,0.025312057,0.06792629,-0.07052557,-0.05634191,-0.07741634,-0.028157076,0.05761733,0.00041138174,0.05783561,0.072450556,0.05593422,0.0070664138,-0.085095085,-0.017052056,-0.033562735,0.04575564,0.040726442,-0.042506605,-0.074496545,0.0036850057,-0.0991002,-0.069395505,0.033803675,0.098284,-0.011015772,0.005347742,0.08791479,0.038707003,0.022323484,-0.081053525,-0.068103,-0.03499683,0.024430757,0.08000449,-0.019751888,0.0681892,0.09058551,-0.0010481033,0.10683987,0.034800947,-0.024782868,0.003729792,-0.080301404,-0.001923721,0.050849564,0.0024306767,0.009451998,-0.03342137,-0.03446499,-0.0038684488,0.0060877334,-0.08489536,-0.08327941,0.064598724,-0.03796641,-0.011696877,0.029729418,0.0022076638,-0.0054340423,-0.018218849,-0.017700361,0.08109164,0.02082929,-0.07207308,-0.013917226,-0.10221878,0.08057679,-0.058269024,0.01082267,0.010565035,0.02006477,-0.00033639613,0.08712117,-0.10201093,-0.036035135,-0.0036787281,0.087602034,-0.09656891,-0.048556656,0.04753615,-0.054677404,0.09172531,-0.0109528955,-0.01971456,-0.0072185886,-0.015747968,-0.10937812,0.03354244,-0.031221962,-0.10054726,0.09129605,0.054640215,-0.032753143,-0.052500494,-0.046856724,0.097706825,-0.051810652,0.08679312,0.040148925,-0.060631517,-0.05449432,0.054317273,-0.063667804,-0.019459227,0.0147962915,-0.010950494,-0.07302518,-0.023824787,-0.08270698,0.0358723,-0.07068422,0.027211603,0.014243104,0.035209514,0.04101867,-0.111451365,-0.09652421,-0.10403961,-0.06628505,0.049395062,-0.07540059,0.016324561,-0.060577862,-0.102832526,0.04778809,0.10036959,0.05620423,-0.03195562,0.10446779,-0.007653567,-0.104522444,0.003578685,0.06545657,0.030472195,0.07394712,-0.005904532,0.08801422,-0.07253008,0.028794644,-0.026621174,0.06386651,-0.11408957,-0.06494536,-0.08676751,0.022978853,-0.11349981,-0.07675907,-0.0040558297,-0.022666438,-0.09199861,-0.10240419,0.027068213,-0.015600721,-0.004471309,-0.10317162,-0.013268403,-0.082885586,-0.07839829,0.014680598,0.005286514,0.05184009,0.10023094,-0.0008311872,0.055502307,0.06648763,-0.027248284,0.088620976,-0.06606553,-0.08847564,0.089145556,0.034207985,-0.011028015,-0.08928805,0.0023038664,0.049403287,-0.10737132,0.030580131,0.026324522,0.016309692,0.09329155,0.0038810067,0.076420404,-0.08960021,0.0943562,0.091529585,0.055792976,0.07920752,-0.013417399,-0.013630501,-0.03172334,0.032015454,0.09065575,0.0082346145,-0.09990384,-0.073589176,0.09371905,0.05252916,0.06871231,-0.0004575494,0.103662714,-0.07904073,0.005126047,-0.042163134,-0.028992647,-0.10379115,-0.07509623,0.019605255,-0.013478229,-0.02865037,-0.061284605,-0.012175897,-0.002122805,0.087001294,-0.050227683,0.04526897,-0.05707451,-0.10472033,-0.006104172,0.034844503,-0.06143028,-0.099648625,0.10714888,0.0873399,-0.07843207,0.054049037,0.049195495,-0.103858374,0.01649416,0.009739559,-0.07094418,-0.11154216,0.0580189,-0.024277776,-0.07750403,0.017111285,0.02712664,0.089246,0.02746476,0.00997693,-0.066410765,-0.060599796,-0.072685525,0.10339924,-0.073852785,0.05469757,0.01373041,-0.08677569,-0.05403707,0.05464875,0.078944646,-0.01708832,-0.00089989795,0.04719419,-0.09516002,0.033481237,0.029761154,-0.038997266,0.045161434,0.036775153,-0.06390627,0.02947809,0.046895053,-0.07041246,-0.07229142,0.0035530117,0.008692489,-0.032146808,0.061125178,0.0016062534,0.04020142,0.027844967,0.0185265,0.073787026,-0.066064514,-0.07231274,0.03352926,0.053105894,0.007058605,-0.054445848,0.08964575,-0.0007181706,-0.098051295,-0.024107428,0.09640268,0.07390756,0.056051295,-0.09956255,0.02441025,-0.017773442,0.053341575,0.07420551,-0.11162166,-0.05007066,-0.031289414,0.08125402,0.024603847,-0.041064892,0.072805,0.046257265,0.030474415,0.09597267,0.098737836,-0.06984661,-0.101014175,-0.04570195,-0.05044268,0.08520038,-0.02655055,-0.027273908,-0.06050389,-0.055180468,-0.030594684,-0.0924654,0.09093556,-0.09579479,-0.05647701,-0.0068977927,0.056697387,-0.04061871,-0.024519647,-0.044856347,-0.023154346,-0.06928676,-0.06632125},
		{-0.10147582,0.066487186,-0.053204447,-0.069498464,0.0011531431,-0.0016425784,0.030551827,-0.079207756,-0.041728046,0.03441751,0.0033445696,0.09184405,0.014150916,-0.0983716,-0.05098487,-0.07725611,-0.025108185,-0.014295774,-0.025256073,0.071023434,0.0018343922,0.029042173,0.010953186,-0.0039476734,-0.04422661,-0.041467752,-0.011395322,-0.052668132,-0.07047517,-0.001445149,-0.08836422,-0.031531543,-0.03919658,-0.014433812,0.06694785,0.026277488,-0.024972927,-0.03226745,-0.06099265,0.035583522,-0.036733508,0.10312989,0.03853194,0.07882117,-0.037442718,0.073388055,-0.031602357,-0.007250557,-0.0052955444,-0.09233748,-0.05482115,-0.009783291,0.04679246,-0.021682942,-0.05076563,-0.023863917,0.0026620852,0.017364226,0.033629134,-0.08874651,-0.06637092,-0.027289413,0.08586286,0.033477206,0.03402002,0.036186364,-0.07380512,-0.06914122,0.07827104,0.0028982477,-0.046476416,0.09618002,-0.07278418,0.0071804416,-0.040414933,0.005810843,-0.056029715,-0.08079016,-0.06436145,0.052135102,0.061945908,0.08229001,0.102012366,0.070044644,0.072361246,-0.010498235,-0.036807384,-0.098594435,-0.06851254,-0.08415693,-0.09266709,-0.058918253,-0.038439076,0.06593757,0.037273526,0.033144075,-0.095015675,0.07758434,-0.10185525,-0.08994807,-0.038926445,-0.10408104,0.015311926,0.048630394,-0.0060064504,-0.0050062425,0.0077158515,-0.08157881,-0.015750866,-0.058816,0.04796656,0.10119465,0.05027659,0.10035131,0.014304141,0.052259326,-0.08483574,0.044610027,-0.025445217,0.068431236,-0.09126418,0.087928176,-0.017876865,-0.02126826,-0.045478195,-0.07911983,-0.016971061,-0.006430707,0.057897568,0.090020955,-0.011337349,-0.067812875,-0.039694287,-0.050821353,-0.047209986,0.082046546,0.038899437,0.047511525,0.08499416,0.06024659,-0.0791174,0.042246357,-0.068115704,0.033787407,-0.10527008,-0.08080854,-0.057634357,0.029797526,0.03793711,-0.057759468,0.039812747,0.05373582,-0.09783352,0.07337667,-0.07743764,0.10481634,-0.106727265,-0.09618433,-0.09111648,-0.05990561,-0.09315048,-0.089691706,0.0983081,-0.012863002,-0.056278452,0.011312617,0.011122642,0.079567365,-0.06532917,0.060385007,-0.04597991,0.053691022,-0.09586191,0.027777957,-0.10783838,0.034833957,0.039467,0.059990298,-0.080144405,-0.09721163,0.08545405,0.0017557575,0.04351703,-0.010696696,-0.063212246,0.088521086,0.0637589,-0.030642027,-0.06729799,-0.02368281,-0.06569196,-0.057898216,0.023426186,-0.05803436,-0.004564751,-0.10421826,-0.024612885,0.0880495,-0.061005004,0.046542708,0.06596367,0.09685109,-0.07268199,-0.07692165,-0.02663832,0.08461762,-0.021698844,-0.07434884,-0.0009567475,0.08054446,-0.092152335,0.039381277,-0.105007365,0.08940928,0.019546721,0.0010284756,-0.10906329,-0.064715795,0.060848057,-0.0057194713,-0.05839474,0.0112602115,0.09892136,0.08739501,0.07665044,-0.08745555,-0.076443195,-0.0969759,-0.09984054,0.01201754,0.028275521,0.10525279,-0.028317973,-0.07204571,-0.10634805,0.087388456,0.040192038,0.08302026,0.008878177,-0.050942197,-0.01789073,0.057826117,0.053378023,-0.08252245,0.020668568,0.0059318356,0.0583931,-0.011041389,-0.07409612,0.02530628,-0.07488456,0.07905675,-0.03830719,-0.004562625,0.056790702,-0.01289823,-0.065466195,-0.05164498,0.0043456205,-0.04012888,0.010323629,-0.052722584,0.046253804,-0.10731767,-0.059974153,0.011161434,-0.053544484,-0.10110276,0.0684299,-0.042202856,0.036183547,0.027577892,0.07666577,0.03102433,0.08484295,0.065860696,-0.048974432,0.031150501,-0.045090202,-0.017723916,0.104634106,0.065122224,-0.0104628345,-0.05536511,0.071961805,0.07383155,-0.080930054,0.017731285,-0.02091703,-0.02280356,-0.10455158,0.09320479,0.009659678,0.04174113,-0.069154896,0.10191908,-0.067044616,-0.058152687,0.046469588,0.032202344,0.078960575,-0.070489846,0.0869546,-0.064481445,-0.07110399,-0.009428174,-0.02449147,-0.10721572,0.07642699,-0.047633857,-0.1019587,0.100408316,-0.09249497,0.053411685,-0.01253392,0.04123159,-0.06302786,0.043558218,-0.103931725,0.033883944,-0.098132744,0.022077894,0.08814432,0.03837056,-0.08422057,-0.028658705,0.033037942,-0.08025991,-0.013673756,0.091222204,-0.058208846,-0.06928375,-0.09644458,-0.07652523,0.05395413,-0.020916602,0.030822966,-0.07268553,0.06604372,-0.034358848,0.036295217,0.028017743,0.0014216425,-0.062038478,0.038442086,-0.039712757,0.06676617,0.09063698,-0.046853244,0.007162101,-0.001562387,-0.044931117,0.05041862,-0.06491134,0.024991324,-0.107604735,-0.06828637,0.049392436,0.08900896,0.07091072,-0.06317459,-0.053248324,-0.092046306,0.027145002,0.017153636,0.013699156,-0.057883512,-0.061863583,0.090171896,0.019749913,0.094316326,-0.074395195,-0.055120453,-0.050736506,-0.009377989,0.040597443,-0.09302557,0.10015713,-0.009885792,-0.043421075,0.04551757,-0.058804408,0.102889895,0.02443359,-0.044249214,-0.066652544,0.09733069,0.08675004,0.07084682,-0.08228919,0.05285773,0.09260206,-0.10895351,0.06325641,0.073107235,-0.039177716,-0.0056299134,-0.008256334,0.06537411,-0.06441263},
		{-0.0789075,-0.032119267,-0.025765646,0.018198108,-0.08504347,0.0004276684,0.07344738,-0.0015722937,-0.011028775,0.044104293,0.1483832,0.14195964,-0.058564097,0.07574401,0.03725127,-0.0029386438,0.03399643,0.08023054,-0.076716356,-0.04341344,-0.013745739,0.1420474,-0.122735314,-0.019540159,-0.05316303,0.02960648,-0.028474797,0.06867483,0.05951225,-0.018874425,0.0023774025,-0.05528929,-0.073650174,-0.025691736,-0.0056300377,-0.039037257,0.0051336642,0.07533341,-0.1723645,-0.060197383,-0.026142497,0.03911273,0.09551967,0.02518448,-0.04462741,-0.081189916,0.02834968,0.034363013,-0.0742511,0.019520584,-0.065632775,-0.060352623,0.05040646,0.004375228,-0.06673279,0.02474257,-0.03146396,-0.07401933,0.03348924,0.030375555,-0.09536857,0.04765447,0.065602005,0.0935925,0.063627444,-0.07286149,0.1212481,-0.041516304,0.035136867,0.023663284,-0.12011721,-0.041372452,-0.07868919,0.11204146,0.08331596,0.07273948,0.09257085,0.043811917,-0.07888643,-0.09436073,0.056981098,0.06691657,0.034051325,-0.06781406,-0.058713622,-0.027540347,0.008593393,0.07999273,0.07282519,0.058883853,-0.009440806,-0.09346135,-0.024896387,0.09989384,-0.00021768834,-0.07555725,-0.053687938,0.05751229,-0.010305855,0.09016448,0.0029439153,0.07712911,0.102805495,0.0003443695,0.0560555,-0.0036277093,-0.085565835,0.03510822,-0.12095787,0.03548566,-0.066703625,-0.10886739,0.0032581857,-0.080216706,-0.002666076,0.05211403,-0.08592124,-0.03164302,-0.10367884,0.0071638795,0.06044441,0.067911774,0.015091684,-0.09236937,-0.014272225,-0.027029004,0.10659151,0.051008888,-0.042455386,-0.031089284,-0.13975798,-0.022482699,0.034031093,-0.04316379,0.040838614,0.00406386,-0.059522696,0.012020136,-0.111055866,0.072872184,0.033933036,-0.0024610108,-0.028664438,-0.072276376,0.016501829,-0.033282813,0.0853263,0.05900378,-0.027459003,0.016124725,-0.02483933,-0.084107995,-0.023300711,0.04041227,0.09468779,-0.036445875,0.03324435,0.16925526,0.09127692,-0.011895836,-0.030148633,-0.019979373,-0.013738302,0.0756652,0.007845715,0.023075528,-0.02579686,0.12256979,0.052530244,0.09490566,-0.028163109,0.05138068,0.034970738,0.05603366,-0.05034107,-0.05828349,-0.12132698,0.036675703,0.053475097,-0.03485562,-0.058891352,-0.040884353,-0.051639017,0.083972126,0.12912133,0.071747325,-0.018473888,-0.011738331,-0.00060558575,0.09253911,-0.09554703,-0.08405264,-0.0133409845,-0.06825645,-0.11586522,0.0379117,0.09062867,0.170989,0.09275903,-0.12503028,0.0031846524,0.09545322,0.03177147,0.091893,0.06841916,-0.13583924,0.07159238,0.063376054,0.08526719,0.000114815135,-0.011730992,-0.09917946,-0.096244544,-0.1307085,0.031268235,0.035626713,0.0276765,0.12991497,0.07142723,0.009118448,0.06668997,-0.023995036,0.13951695,0.04154092,0.022669734,0.029020073,0.0331159,-0.085781135,-0.092030235,0.0552043,-0.052873503,0.03820816,0.15343288,-0.015917625,-0.09519896,-0.046952825,-0.06903454,0.17795347,0.14084783,0.05076583,0.02612319,-0.070820175,0.16661412,0.042307213,-0.01589605,0.016695226,-0.015710467,-0.037047353,-0.030821158,-0.04304937,-0.035303887,0.061949324,0.09551354,2.3606708e-05,-0.10589834,0.037078477,0.007954783,-0.102651164,-0.089869946,0.028778145,0.043798696,-0.09692826,0.067564145,-0.094747424,-0.054728303,0.0022712988,0.0007854482,0.061376516,0.016075892,0.09797149,0.025439383,0.017519958,-0.04261284,-0.0026194782,0.042061675,0.06226145,0.083236314,-0.10994297,-0.10033353,0.11997189,0.030068953,-0.045073867,-0.11138134,-0.11037961,-0.029148933,-0.09827607,-0.0008656951,-0.09921004,-0.014115302,0.034533303,-0.03975621,0.06098338,-0.036392633,-0.029317789,0.06632944,0.06628225,-0.02988933,-0.06522807,0.08808909,0.061903726,-0.084877916,0.10351903,0.042098116,0.010300746,0.057344187,0.028094156,-0.0318021,0.09339524,0.02998338,0.12834536,-0.11625107,-0.0086892145,-0.053820617,0.031713642,-0.098442554,0.12159836,-0.013721024,-0.00774601,0.039938495,0.021606848,0.0617537,0.096868604,0.10736078,0.12076256,-0.0004098199,0.06242418,-0.054961275,0.03986381,-0.11256742,-0.04267317,0.03562736,0.048213925,-0.10794001,-0.096731976,-0.07052148,-0.051929038,0.048879623,-0.06928593,-0.04452333,-0.06428566,-0.0644135,0.048502386,-0.06378517,-0.031722866,0.02351412,-0.09214647,-0.10178374,-0.049153976,-0.052581906,0.12796156,-0.06359885,-0.046035443,0.11984144,-0.078771316,0.02252803,-0.092038274,0.0101988325,0.076542474,0.053640746,0.042008024,0.03437769,0.069363646,0.091072366,0.085189655,-0.03625078,-0.035061277,0.06843996,-0.039345425,-0.08884294,0.0078099556,-0.068402834,-0.05716845,0.00290708,0.026168613,0.089001454,0.08507966,0.016696801,0.042069305,-0.12640436,-0.08524982,-0.009720197,-0.057997372,-0.015273557,-0.029831313,0.03357334,0.0050559863,-0.025179777,0.010330842,0.06472153,-0.0096849045,0.088232554,0.06036377,0.13947941,0.007853363,-0.030719591,-0.0037809054,0.043249324,0.06250758,-0.0073730443,0.039428666},
