const float bias[120]={0.009171085, -0.010194153, -0.005007535, -0.0036003955, 0.003930017, 0.011647163, 4.1030806e-05, 0.01236798, 4.7262343e-05, 0.0007359091, 0.003967165, 0.0010542813, 0.0050442517, -0.002788293, -0.0036664829, 0.0010284246, 0.020850956, -0.0067317453, -0.0011070977, 0.035283104, -0.0070696683, -0.008045287, 0.016018266, 0.017220138, 0.01004444, 0.0013632426, 0.0016863865, -0.006854919, -0.013527457, -0.00017349265, 0.015016372, 0.00057888, -0.0018074823, -0.0077791642, 0.008301254, 0.0037915132, -0.0061782096, 0.0036282884, 0.009357458, -0.0010046304, -0.0059209084, 0.012289623, 0.0010321689, 0.013377799, 0.0020421012, -0.012430049, -0.009530834, -0.0013580605, -0.005798124, 0.00018091922, -0.010910607, -0.0020853574, -0.0060018036, -0.0020731015, 0.0138158435, -0.005223667, -0.0023407212, 0.031443592, -0.02621385, 0.032535788, 0.009874456, 0.0092602875, 3.4153887e-05, -0.005392614, 0.001860743, -0.005685381, 0.015871055, 6.292251e-05, -0.00016809095, -0.00026827818, 0.00093478, 0.0036259848, 0.01606613, -5.6685683e-05, 0.020296382, -0.0035349063, 0.007105108, 0.0025238956, -0.02154096, 0.022019668, -0.009067524, -5.2579562e-05, -0.017957, -0.00044610703, 0.0051291413, -0.0015533968, 0.019867929, 0.0009963544, -0.0055826153, 0.0028305908, 0.0025264383, -0.015829409, -7.563106e-05, -0.006910335, 0.00044541954, 0.00994394, 0.010892489, -0.003224977, -0.008760875, 0.007134683, 0.013950372, 0.00846362, 0.012757293, -0.00028081585, 0.004525259, -0.0015772214, -0.007359414, -0.0063696224, 0.0071137445, 0.00034383178, 0.008988597, 0.006614185, 0.00763062, -0.0014752608, 0.019567316, 0.022503253, 0.01574483, 0.017298805, 0.0013177549, 0.0072259484};
